{"learner":{"attributes":{"scikit_learn":"{\"_estimator_type\": \"regressor\"}"},"feature_names":["country","location_name","latitude","longitude","condition_text","wind_kph","wind_degree","wind_direction","pressure_mb","precip_mm","humidity","cloud","visibility_km","uv_index","air_quality_Carbon_Monoxide","air_quality_Ozone","air_quality_Nitrogen_dioxide","air_quality_Sulphur_dioxide","air_quality_PM2.5","air_quality_PM10","air_quality_us-epa-index","air_quality_gb-defra-index","year","month","day","hour"],"feature_types":["int","int","float","float","int","float","int","int","float","float","int","int","float","float","float","float","float","float","float","float","int","int","int","int","int","int"],"gradient_booster":{"model":{"cats":{"enc":[],"feature_segments":[],"sorted_idx":[]},"gbtree_model_param":{"num_parallel_tree":"1","num_trees":"300"},"iteration_indptr":[0,1,2,3,4,5,6,7,8,9,10,11,12,13,14,15,16,17,18,19,20,21,22,23,24,25,26,27,28,29,30,31,32,33,34,35,36,37,38,39,40,41,42,43,44,45,46,47,48,49,50,51,52,53,54,55,56,57,58,59,60,61,62,63,64,65,66,67,68,69,70,71,72,73,74,75,76,77,78,79,80,81,82,83,84,85,86,87,88,89,90,91,92,93,94,95,96,97,98,99,100,101,102,103,104,105,106,107,108,109,110,111,112,113,114,115,116,117,118,119,120,121,122,123,124,125,126,127,128,129,130,131,132,133,134,135,136,137,138,139,140,141,142,143,144,145,146,147,148,149,150,151,152,153,154,155,156,157,158,159,160,161,162,163,164,165,166,167,168,169,170,171,172,173,174,175,176,177,178,179,180,181,182,183,184,185,186,187,188,189,190,191,192,193,194,195,196,197,198,199,200,201,202,203,204,205,206,207,208,209,210,211,212,213,214,215,216,217,218,219,220,221,222,223,224,225,226,227,228,229,230,231,232,233,234,235,236,237,238,239,240,241,242,243,244,245,246,247,248,249,250,251,252,253,254,255,256,257,258,259,260,261,262,263,264,265,266,267,268,269,270,271,272,273,274,275,276,277,278,279,280,281,282,283,284,285,286,287,288,289,290,291,292,293,294,295,296,297,298,299,300],"tree_info":[0,0,0,0,0,0,0,0,0,0,0,0,0,0,0,0,0,0,0,0,0,0,0,0,0,0,0,0,0,0,0,0,0,0,0,0,0,0,0,0,0,0,0,0,0,0,0,0,0,0,0,0,0,0,0,0,0,0,0,0,0,0,0,0,0,0,0,0,0,0,0,0,0,0,0,0,0,0,0,0,0,0,0,0,0,0,0,0,0,0,0,0,0,0,0,0,0,0,0,0,0,0,0,0,0,0,0,0,0,0,0,0,0,0,0,0,0,0,0,0,0,0,0,0,0,0,0,0,0,0,0,0,0,0,0,0,0,0,0,0,0,0,0,0,0,0,0,0,0,0,0,0,0,0,0,0,0,0,0,0,0,0,0,0,0,0,0,0,0,0,0,0,0,0,0,0,0,0,0,0,0,0,0,0,0,0,0,0,0,0,0,0,0,0,0,0,0,0,0,0,0,0,0,0,0,0,0,0,0,0,0,0,0,0,0,0,0,0,0,0,0,0,0,0,0,0,0,0,0,0,0,0,0,0,0,0,0,0,0,0,0,0,0,0,0,0,0,0,0,0,0,0,0,0,0,0,0,0,0,0,0,0,0,0,0,0,0,0,0,0,0,0,0,0,0,0,0,0,0,0,0,0,0,0,0,0,0,0,0,0,0,0,0,0,0,0,0,0,0,0],"trees":[{"base_weights":[2.0397874E-7,3.2649343E0,-7.988212E0,5.3505735E0,-1.7514814E0,-1.2596914E1,2.1234324E0,3.4062269E0,8.859049E0,-3.716307E0,2.6643414E0,-1.8124935E1,-1.0050527E1,-7.3747754E-1,8.957714E0,2.2395375E0,6.034558E0,1.3470501E1,7.4977136E0,-2.0031874E0,-6.6066136E0,3.6575751E0,2.5951225E-1,-1.5046039E1,-2.032688E1,-7.038531E0,-1.6354137E1,-3.665676E0,1.0059891E0,6.4082184E0,1.1245002E1,2.7511506E0,-4.1583786E0,-5.104245E0,6.587552E0,1.5722297E1,1.0190442E1,9.02572E0,6.372392E0,2.7825734E-1,-3.69521E0,-1.1016854E1,-5.8471656E0,3.9863353E0,6.225115E-1,1.0839713E0,-1.5273632E0,-1.3216441E1,-1.6450861E1,-1.8475378E1,-2.5079884E1,-2.422867E0,-8.235295E0,-1.3649461E1,-1.8410217E1,-8.090734E0,-2.5545297E0,-1.5923779E0,1.9348283E0,2.9109094E0,6.839159E0,1.2671794E1,9.15072E0,1.5482633E-1,-9.176038E-2,-4.1563955E-1,-2.1787055E-2,2.0525956E-1,-3.3128425E-1,3.4900573E-1,5.4487742E-2,8.7504846E-1,6.0161316E-1,5.356711E-1,3.456688E-2,5.251825E-1,3.7746975E-1,3.3195016E-1,1.8579532E-1,-1.8523E-1,6.143373E-2,-4.0294167E-1,-1.09905995E-1,-2.488101E-1,-6.0149044E-1,-2.248446E-1,-4.8912382E-1,1.657047E-1,2.486753E-1,1.1342676E-1,-1.0768294E-1,-1.4483524E-4,1.2577496E-1,-1.1448331E-1,1.3387523E-2,-1.1019001E0,-6.11639E-1,-8.8217133E-1,-6.545367E-1,-1.4441303E0,-9.0003914E-1,-1.4165648E0,-9.079917E-1,-3.1118783E-1,-1.7459644E-2,-6.3859934E-1,-3.6269936E-1,-5.671523E-1,-7.933327E-1,-8.771365E-1,-1.5112315E0,-3.5636938E-1,-7.1367306E-1,-2.2260015E-1,-5.3436764E-2,-1.4651932E-1,6.328399E-2,1.8650614E-1,1.0856743E-2,4.0393454E-1,5.895875E-2,4.0490603E-1,3.0043685E-1,4.6796903E-1,6.6059726E-1,5.3326124E-1,2.942918E-1],"categories":[],"categories_nodes":[],"categories_segments":[],"categories_sizes":[],"default_left":[0,0,0,0,0,0,0,0,0,0,0,0,0,0,0,0,0,0,0,0,0,0,0,0,0,0,0,0,0,0,0,0,0,0,0,0,0,0,0,0,0,0,0,0,0,0,0,0,0,0,0,0,0,0,0,0,0,0,0,0,0,0,0,0,0,0,0,0,0,0,0,0,0,0,0,0,0,0,0,0,0,0,0,0,0,0,0,0,0,0,0,0,0,0,0,0,0,0,0,0,0,0,0,0,0,0,0,0,0,0,0,0,0,0,0,0,0,0,0,0,0,0,0,0,0,0,0],"id":0,"left_children":[1,3,5,7,9,11,13,15,17,19,21,23,25,27,29,31,33,35,37,39,41,43,45,47,49,51,53,55,57,59,61,63,65,67,69,71,73,75,77,79,81,83,85,87,89,91,93,95,97,99,101,103,105,107,109,111,113,115,117,119,121,123,125,-1,-1,-1,-1,-1,-1,-1,-1,-1,-1,-1,-1,-1,-1,-1,-1,-1,-1,-1,-1,-1,-1,-1,-1,-1,-1,-1,-1,-1,-1,-1,-1,-1,-1,-1,-1,-1,-1,-1,-1,-1,-1,-1,-1,-1,-1,-1,-1,-1,-1,-1,-1,-1,-1,-1,-1,-1,-1,-1,-1,-1,-1,-1,-1],"loss_changes":[3.188218E6,9.078975E5,1.6528445E6,4.1809175E5,2.2111731E5,3.42763E5,2.1713447E5,1.2092406E5,1.3709888E5,8.731533E4,1.874445E4,5.177475E4,3.1661688E5,3.997243E4,1.9037531E4,8.9423766E4,7.471375E4,3.6622125E4,2.8960812E4,4.275337E4,2.1917344E4,5.5393438E3,3.3826624E3,8.0254375E3,3.8926375E4,6.23445E4,2.973925E4,1.4346477E4,1.1848367E4,2.3191602E3,5.0415E3,4.0071797E4,3.1282824E4,8.0698545E3,2.4922125E4,1.9158E4,1.00773125E4,1.553225E4,6.8609375E3,1.786017E4,4.1523953E4,5.8326484E3,2.9718312E4,3.3088984E3,2.4907708E3,2.4442979E3,9.9271814E2,1.1861484E4,7.0219688E3,1.5409125E4,2.7655438E4,1.8330906E4,3.9818562E4,1.1750406E4,3.08415E4,3.3885469E3,6.5838438E3,4.9482764E3,1.1150084E4,1.5297405E3,1.3951328E3,1.7084844E3,3.4133438E3,0E0,0E0,0E0,0E0,0E0,0E0,0E0,0E0,0E0,0E0,0E0,0E0,0E0,0E0,0E0,0E0,0E0,0E0,0E0,0E0,0E0,0E0,0E0,0E0,0E0,0E0,0E0,0E0,0E0,0E0,0E0,0E0,0E0,0E0,0E0,0E0,0E0,0E0,0E0,0E0,0E0,0E0,0E0,0E0,0E0,0E0,0E0,0E0,0E0,0E0,0E0,0E0,0E0,0E0,0E0,0E0,0E0,0E0,0E0,0E0,0E0,0E0,0E0,0E0],"parents":[2147483647,0,0,1,1,2,2,3,3,4,4,5,5,6,6,7,7,8,8,9,9,10,10,11,11,12,12,13,13,14,14,15,15,16,16,17,17,18,18,19,19,20,20,21,21,22,22,23,23,24,24,25,25,26,26,27,27,28,28,29,29,30,30,31,31,32,32,33,33,34,34,35,35,36,36,37,37,38,38,39,39,40,40,41,41,42,42,43,43,44,44,45,45,46,46,47,47,48,48,49,49,50,50,51,51,52,52,53,53,54,54,55,55,56,56,57,57,58,58,59,59,60,60,61,61,62,62],"right_children":[2,4,6,8,10,12,14,16,18,20,22,24,26,28,30,32,34,36,38,40,42,44,46,48,50,52,54,56,58,60,62,64,66,68,70,72,74,76,78,80,82,84,86,88,90,92,94,96,98,100,102,104,106,108,110,112,114,116,118,120,122,124,126,-1,-1,-1,-1,-1,-1,-1,-1,-1,-1,-1,-1,-1,-1,-1,-1,-1,-1,-1,-1,-1,-1,-1,-1,-1,-1,-1,-1,-1,-1,-1,-1,-1,-1,-1,-1,-1,-1,-1,-1,-1,-1,-1,-1,-1,-1,-1,-1,-1,-1,-1,-1,-1,-1,-1,-1,-1,-1,-1,-1,-1,-1,-1,-1],"split_conditions":[3.87167E1,1.016E3,3.1E0,5.1E0,5.1E0,4E0,6.8E0,9.04086E1,1.008E3,1.021E3,1.022E3,4.54167E1,1.1E1,4.2E0,8E0,2.23E2,-3.48581E1,4.9E1,1.012E3,2.6E0,-2.632E1,1.95E2,1.026E3,2.04651E1,2.14333E1,4.25E1,4.54167E1,5E0,6E0,6E0,3.3E1,3.178E1,3.6E1,4.5E1,2.44667E1,3.35E1,2.38E2,5.7E1,7.6E1,-1.89167E1,3.156E-1,5E0,3.403E1,8E0,1.34E2,8E0,8.23E1,2.2E1,3E0,4.542E1,3E0,6E0,5E0,1.2E1,3.87E1,1.027E3,2.025E3,1.5E1,5.2E1,2.8E1,3.7E1,7.22E1,2.025E3,1.5482633E-1,-9.176038E-2,-4.1563955E-1,-2.1787055E-2,2.0525956E-1,-3.3128425E-1,3.4900573E-1,5.4487742E-2,8.7504846E-1,6.0161316E-1,5.356711E-1,3.456688E-2,5.251825E-1,3.7746975E-1,3.3195016E-1,1.8579532E-1,-1.8523E-1,6.143373E-2,-4.0294167E-1,-1.09905995E-1,-2.488101E-1,-6.0149044E-1,-2.248446E-1,-4.8912382E-1,1.657047E-1,2.486753E-1,1.1342676E-1,-1.0768294E-1,-1.4483524E-4,1.2577496E-1,-1.1448331E-1,1.3387523E-2,-1.1019001E0,-6.11639E-1,-8.8217133E-1,-6.545367E-1,-1.4441303E0,-9.0003914E-1,-1.4165648E0,-9.079917E-1,-3.1118783E-1,-1.7459644E-2,-6.3859934E-1,-3.6269936E-1,-5.671523E-1,-7.933327E-1,-8.771365E-1,-1.5112315E0,-3.5636938E-1,-7.1367306E-1,-2.2260015E-1,-5.3436764E-2,-1.4651932E-1,6.328399E-2,1.8650614E-1,1.0856743E-2,4.0393454E-1,5.895875E-2,4.0490603E-1,3.0043685E-1,4.6796903E-1,6.6059726E-1,5.3326124E-1,2.942918E-1],"split_indices":[2,8,13,13,13,23,13,3,8,8,8,2,23,13,13,1,2,10,8,17,2,0,8,3,3,2,2,23,23,23,10,2,0,10,2,2,1,10,11,2,2,23,2,13,1,13,15,1,23,2,23,23,23,23,3,8,22,25,10,10,10,15,22,0,0,0,0,0,0,0,0,0,0,0,0,0,0,0,0,0,0,0,0,0,0,0,0,0,0,0,0,0,0,0,0,0,0,0,0,0,0,0,0,0,0,0,0,0,0,0,0,0,0,0,0,0,0,0,0,0,0,0,0,0,0,0,0],"split_type":[0,0,0,0,0,0,0,0,0,0,0,0,0,0,0,0,0,0,0,0,0,0,0,0,0,0,0,0,0,0,0,0,0,0,0,0,0,0,0,0,0,0,0,0,0,0,0,0,0,0,0,0,0,0,0,0,0,0,0,0,0,0,0,0,0,0,0,0,0,0,0,0,0,0,0,0,0,0,0,0,0,0,0,0,0,0,0,0,0,0,0,0,0,0,0,0,0,0,0,0,0,0,0,0,0,0,0,0,0,0,0,0,0,0,0,0,0,0,0,0,0,0,0,0,0,0,0],"sum_hessian":[1.22241E5,8.6775E4,3.5466E4,6.1292E4,2.5483E4,2.4362E4,1.1104E4,3.9438E4,2.1854E4,1.7636E4,7.847E3,7.681E3,1.6681E4,7.828E3,3.276E3,2.7315E4,1.2123E4,4.979E3,1.6875E4,1.1074E4,6.562E3,5.553E3,2.294E3,3.206E3,4.475E3,1.1289E4,5.392E3,2.921E3,4.907E3,1.551E3,1.725E3,2.5293E4,2.022E3,5.73E2,1.155E4,2.95E3,2.029E3,7.154E3,9.721E3,4.716E3,6.358E3,9.62E2,5.6E3,5.01E3,5.43E2,1.57E3,7.24E2,1.397E3,1.809E3,3.224E3,1.251E3,2.325E3,8.964E3,2.332E3,3.06E3,5.85E2,2.336E3,1.292E3,3.615E3,1.71E2,1.38E3,1.023E3,7.02E2,2.3522E4,1.771E3,9.55E2,1.067E3,8.1E1,4.92E2,1.078E4,7.7E2,1.988E3,9.62E2,1.923E3,1.06E2,3.572E3,3.582E3,8.833E3,8.88E2,9.08E2,3.808E3,1.623E3,4.735E3,1.39E2,8.23E2,4.171E3,1.429E3,2.983E3,2.027E3,3.41E2,2.02E2,8.93E2,6.77E2,5.08E2,2.16E2,1.38E2,1.259E3,1.332E3,4.77E2,1.38E2,3.086E3,8.49E2,4.02E2,8.2E2,1.505E3,1.592E3,7.372E3,1.146E3,1.186E3,2.853E3,2.07E2,5.08E2,7.7E1,1.025E3,1.311E3,8.8E2,4.12E2,1.767E3,1.848E3,4.2E1,1.29E2,5.45E2,8.35E2,1.46E2,8.77E2,4.78E2,2.24E2],"tree_param":{"num_deleted":"0","num_feature":"26","num_nodes":"127","size_leaf_vector":"1"}},{"base_weights":[-7.7617995E-5,3.101706E0,-7.5891147E0,5.0830994E0,-1.6639766E0,-1.1967603E1,2.0174313E0,3.5267458E0,9.060775E0,-3.5306168E0,2.5311813E0,-1.7219719E1,-9.548305E0,-7.007611E-1,8.510782E0,-2.830098E0,3.9631758E0,1.3289728E1,7.588019E0,-1.5964922E0,-5.8518014E0,3.4747722E0,2.4654743E-1,-1.429475E1,-1.9311577E1,-6.686722E0,-1.5537127E1,-3.4828532E0,9.5571274E-1,6.088561E0,1.0683886E1,-5.770915E-1,-6.885384E0,2.9477751E0,6.36595E0,1.5120981E1,1.0092638E1,9.034435E0,6.343283E0,7.501094E-1,-3.112979E0,-1.0295579E1,-5.1270823E0,3.7871015E0,5.913969E-1,8.4087473E-1,-1.9965931E0,-1.2673058E1,-1.5739306E1,-1.8587059E1,-3.035478E1,-2.3018649E0,-7.8236423E0,-1.2876838E1,-1.7428778E1,-6.185634E0,-1.7971212E0,-1.5128238E0,1.8381414E0,2.768056E0,6.4977126E0,7.9302883E0,1.1666334E1,-1.7476988E-1,1.12364605E-1,-3.2238084E-1,-5.136683E-1,1.5521675E-1,-4.095249E-1,3.781768E-1,2.279905E-1,8.3965397E-1,5.8258533E-1,5.284017E-1,2.021371E-2,5.236972E-1,3.798611E-1,3.3034754E-1,1.6217886E-1,-1.629159E-1,7.9748265E-2,-3.5980436E-1,-8.234081E-2,-2.3378055E-1,-5.6746036E-1,-1.773526E-1,-4.1082564E-1,1.5742223E-1,2.362477E-1,1.0777203E-1,-1.0232531E-1,-4.004539E-2,8.072593E-2,-7.147451E-2,-1.894515E-1,-4.3406916E-1,-6.9679517E-1,-7.1810365E-1,-8.9625114E-1,-1.0141912E0,-7.6517385E-1,-1.660002E0,-1.1108123E0,-2.956474E-1,-1.6587231E-2,-6.066894E-1,-3.4456685E-1,-5.326209E-1,-7.5041676E-1,-8.312258E-1,-1.4360332E0,-2.807378E-1,-6.72658E-1,-2.25507E-1,2.4016308E-2,-1.392017E-1,6.012745E-2,1.5113966E-1,-2.5851393E-2,3.842075E-1,5.603353E-2,3.979957E-1,2.921888E-1,3.3965284E-1,6.60229E-1,5.1920575E-1,7.0822835E-1],"categories":[],"categories_nodes":[],"categories_segments":[],"categories_sizes":[],"default_left":[0,0,0,0,0,0,0,0,0,0,0,0,0,0,0,0,0,0,0,0,0,0,0,0,0,0,0,0,0,0,0,0,0,0,0,0,0,0,0,0,0,0,0,0,0,0,0,0,0,0,0,0,0,0,0,0,0,0,0,0,0,0,0,0,0,0,0,0,0,0,0,0,0,0,0,0,0,0,0,0,0,0,0,0,0,0,0,0,0,0,0,0,0,0,0,0,0,0,0,0,0,0,0,0,0,0,0,0,0,0,0,0,0,0,0,0,0,0,0,0,0,0,0,0,0,0,0],"id":1,"left_children":[1,3,5,7,9,11,13,15,17,19,21,23,25,27,29,31,33,35,37,39,41,43,45,47,49,51,53,55,57,59,61,63,65,67,69,71,73,75,77,79,81,83,85,87,89,91,93,95,97,99,101,103,105,107,109,111,113,115,117,119,121,123,125,-1,-1,-1,-1,-1,-1,-1,-1,-1,-1,-1,-1,-1,-1,-1,-1,-1,-1,-1,-1,-1,-1,-1,-1,-1,-1,-1,-1,-1,-1,-1,-1,-1,-1,-1,-1,-1,-1,-1,-1,-1,-1,-1,-1,-1,-1,-1,-1,-1,-1,-1,-1,-1,-1,-1,-1,-1,-1,-1,-1,-1,-1,-1,-1],"loss_changes":[2.877545E6,8.194075E5,1.4918422E6,3.7941275E5,1.9957034E5,3.0940275E5,1.9601117E5,1.2223931E5,1.07254875E5,7.917125E4,1.6917543E4,4.6727E4,2.8578388E5,3.6082984E4,1.7184219E4,2.5861701E4,1.0056594E5,2.5906625E4,2.29645E4,3.4243086E4,2.5762656E4,4.9994844E3,3.0612805E3,7.3133125E3,3.5248375E4,5.626525E4,2.6915E4,1.3301992E4,1.0693912E4,2.0905469E3,4.5767656E3,1.5017293E4,1.4332227E3,5.0564438E4,2.645375E4,1.62095E4,7.4755156E3,1.2151594E4,5.5982812E3,1.2799557E4,3.4979242E4,6.596633E3,3.362317E4,2.986539E3,2.2488438E3,2.3066245E3,4.8351843E2,7.520953E3,4.835875E3,2.3106375E4,5.60725E3,1.6545824E4,3.5941125E4,1.04844375E4,2.8120625E4,4.5795E3,1.1130107E4,4.466537E3,1.0090402E4,1.3843651E3,1.2739727E3,2.6514297E3,3.9210625E3,0E0,0E0,0E0,0E0,0E0,0E0,0E0,0E0,0E0,0E0,0E0,0E0,0E0,0E0,0E0,0E0,0E0,0E0,0E0,0E0,0E0,0E0,0E0,0E0,0E0,0E0,0E0,0E0,0E0,0E0,0E0,0E0,0E0,0E0,0E0,0E0,0E0,0E0,0E0,0E0,0E0,0E0,0E0,0E0,0E0,0E0,0E0,0E0,0E0,0E0,0E0,0E0,0E0,0E0,0E0,0E0,0E0,0E0,0E0,0E0,0E0,0E0,0E0,0E0],"parents":[2147483647,0,0,1,1,2,2,3,3,4,4,5,5,6,6,7,7,8,8,9,9,10,10,11,11,12,12,13,13,14,14,15,15,16,16,17,17,18,18,19,19,20,20,21,21,22,22,23,23,24,24,25,25,26,26,27,27,28,28,29,29,30,30,31,31,32,32,33,33,34,34,35,35,36,36,37,37,38,38,39,39,40,40,41,41,42,42,43,43,44,44,45,45,46,46,47,47,48,48,49,49,50,50,51,51,52,52,53,53,54,54,55,55,56,56,57,57,58,58,59,59,60,60,61,61,62,62],"right_children":[2,4,6,8,10,12,14,16,18,20,22,24,26,28,30,32,34,36,38,40,42,44,46,48,50,52,54,56,58,60,62,64,66,68,70,72,74,76,78,80,82,84,86,88,90,92,94,96,98,100,102,104,106,108,110,112,114,116,118,120,122,124,126,-1,-1,-1,-1,-1,-1,-1,-1,-1,-1,-1,-1,-1,-1,-1,-1,-1,-1,-1,-1,-1,-1,-1,-1,-1,-1,-1,-1,-1,-1,-1,-1,-1,-1,-1,-1,-1,-1,-1,-1,-1,-1,-1,-1,-1,-1,-1,-1,-1,-1,-1,-1,-1,-1,-1,-1,-1,-1,-1,-1,-1,-1,-1,-1],"split_conditions":[3.87167E1,1.016E3,3.1E0,6.1E0,5.1E0,4E0,6.8E0,-1.89167E1,1.008E3,1.02E3,1.022E3,4.54167E1,1.1E1,4.2E0,8E0,1.92E2,9.04086E1,4.9E1,1.012E3,2.22E0,-2.632E1,1.95E2,1.027E3,2.026E3,3.87E1,4.25E1,4.4804E1,6E0,6E0,6E0,1.4E1,-2.59653E1,9.99E2,8.96E1,8E1,3.35E1,2.38E2,5.4E1,7.6E1,-1.89167E1,3.156E-1,5E0,3.195E1,8E0,1.34E2,6.9E0,6.6E1,1.017E3,4.25E1,3E0,3E0,6E0,5E0,1.2E1,3.87E1,1.027E3,2.025E3,1.5E1,5.9E1,2.8E1,3.4E1,1.88E2,8.5E0,-1.7476988E-1,1.12364605E-1,-3.2238084E-1,-5.136683E-1,1.5521675E-1,-4.095249E-1,3.781768E-1,2.279905E-1,8.3965397E-1,5.8258533E-1,5.284017E-1,2.021371E-2,5.236972E-1,3.798611E-1,3.3034754E-1,1.6217886E-1,-1.629159E-1,7.9748265E-2,-3.5980436E-1,-8.234081E-2,-2.3378055E-1,-5.6746036E-1,-1.773526E-1,-4.1082564E-1,1.5742223E-1,2.362477E-1,1.0777203E-1,-1.0232531E-1,-4.004539E-2,8.072593E-2,-7.147451E-2,-1.894515E-1,-4.3406916E-1,-6.9679517E-1,-7.1810365E-1,-8.9625114E-1,-1.0141912E0,-7.6517385E-1,-1.660002E0,-1.1108123E0,-2.956474E-1,-1.6587231E-2,-6.066894E-1,-3.4456685E-1,-5.326209E-1,-7.5041676E-1,-8.312258E-1,-1.4360332E0,-2.807378E-1,-6.72658E-1,-2.25507E-1,2.4016308E-2,-1.392017E-1,6.012745E-2,1.5113966E-1,-2.5851393E-2,3.842075E-1,5.603353E-2,3.979957E-1,2.921888E-1,3.3965284E-1,6.60229E-1,5.1920575E-1,7.0822835E-1],"split_indices":[2,8,13,13,13,23,13,2,8,8,8,2,23,13,13,1,3,10,8,17,2,0,8,22,3,2,2,23,23,23,25,2,14,3,10,2,1,10,11,2,2,23,2,13,1,13,10,8,2,23,23,23,23,23,3,8,22,25,10,10,10,0,13,0,0,0,0,0,0,0,0,0,0,0,0,0,0,0,0,0,0,0,0,0,0,0,0,0,0,0,0,0,0,0,0,0,0,0,0,0,0,0,0,0,0,0,0,0,0,0,0,0,0,0,0,0,0,0,0,0,0,0,0,0,0,0,0],"split_type":[0,0,0,0,0,0,0,0,0,0,0,0,0,0,0,0,0,0,0,0,0,0,0,0,0,0,0,0,0,0,0,0,0,0,0,0,0,0,0,0,0,0,0,0,0,0,0,0,0,0,0,0,0,0,0,0,0,0,0,0,0,0,0,0,0,0,0,0,0,0,0,0,0,0,0,0,0,0,0,0,0,0,0,0,0,0,0,0,0,0,0,0,0,0,0,0,0,0,0,0,0,0,0,0,0,0,0,0,0,0,0,0,0,0,0,0,0,0,0,0,0,0,0,0,0,0,0],"sum_hessian":[1.22241E5,8.6775E4,3.5466E4,6.1292E4,2.5483E4,2.4362E4,1.1104E4,4.4056E4,1.7236E4,1.7636E4,7.847E3,7.681E3,1.6681E4,7.828E3,3.276E3,2.83E3,4.1226E4,4.45E3,1.2786E4,9.621E3,8.015E3,5.553E3,2.294E3,3.206E3,4.475E3,1.1289E4,5.392E3,2.921E3,4.907E3,1.551E3,1.725E3,1.82E3,1.01E3,2.8981E4,1.2245E4,2.827E3,1.623E3,5.911E3,6.875E3,3.777E3,5.844E3,1.122E3,6.893E3,5.01E3,5.43E2,1.814E3,4.8E2,1.515E3,1.691E3,4.202E3,2.73E2,2.325E3,8.964E3,2.244E3,3.148E3,1.121E3,1.8E3,1.292E3,3.615E3,1.71E2,1.38E3,4.56E2,1.269E3,8.95E2,9.25E2,8.97E2,1.13E2,2.858E4,4.01E2,7.361E3,4.884E3,1.905E3,9.22E2,1.547E3,7.6E1,2.95E3,2.961E3,6.335E3,5.4E2,6.57E2,3.12E3,1.543E3,4.301E3,1.78E2,9.44E2,4.562E3,2.331E3,2.983E3,2.027E3,3.41E2,2.02E2,5.81E2,1.233E3,3.66E2,1.14E2,3.66E2,1.149E3,1.042E3,6.49E2,2.767E3,1.435E3,2E2,7.3E1,8.2E2,1.505E3,1.592E3,7.372E3,1.101E3,1.143E3,2.941E3,2.07E2,1.041E3,8E1,8.21E2,9.79E2,8.8E2,4.12E2,2.405E3,1.21E3,4.2E1,1.29E2,4.23E2,9.57E2,3.77E2,7.9E1,8.42E2,4.27E2],"tree_param":{"num_deleted":"0","num_feature":"26","num_nodes":"127","size_leaf_vector":"1"}},{"base_weights":[-1.4553027E-4,2.946633E0,-7.209937E0,4.8289905E0,-1.580846E0,-1.13697195E1,1.9167624E0,3.0587444E0,8.023313E0,-3.693186E0,1.7911831E0,-1.6359684E1,-9.0711775E0,-6.658645E-1,8.086267E0,-2.7705562E0,3.4925082E0,1.1566624E1,6.578819E0,-2.0609717E0,-6.5177693E0,2.7368793E0,-4.0442336E-1,-1.3580869E1,-1.8347015E1,-6.352498E0,-1.4760928E1,-3.3091054E0,9.079366E-1,5.7848616E0,1.0150982E1,-5.999102E-1,-6.5954666E0,2.367795E0,5.9418235E0,1.3446889E1,8.36291E0,7.557133E0,5.4158506E0,3.823713E-1,-3.6301396E0,-5.701374E0,-9.947086E0,9.406705E-1,3.5111437E0,-1.9248031E0,9.7969776E-1,-1.1858654E1,-1.4903563E1,-1.662386E1,-2.2771004E1,-2.1869066E0,-7.4325666E0,-1.1864503E1,-1.6343285E1,-5.877203E0,-1.7073762E0,-4.5483345E-1,2.374663E0,2.6322124E0,6.173327E0,1.1173029E1,7.6437507E0,-1.6974023E-1,1.0583551E-1,-2.366267E-1,-3.7115875E-1,1.4571364E-1,-6.623461E-2,3.1581423E-1,3.489868E-2,7.246117E-1,4.8038036E-1,4.4019252E-1,9.518376E-2,4.8226482E-1,3.4926158E-1,2.8042543E-1,1.2296074E-1,-2.51091E-1,4.9859203E-2,-3.6076713E-1,-1.1628423E-1,-5.6269634E-1,-2.5024557E-1,-3.7864858E-1,-5.93888E-1,-2.6427877E-1,7.9769365E-2,1.9183196E-1,3.0899677E-2,-5.545024E-2,-1.7761523E-1,8.475043E-2,-5.115595E-2,-1.0099071E0,-5.4646254E-1,-8.0151826E-1,-5.8650327E-1,-1.3267564E0,-8.0860966E-1,-1.2875723E0,-8.214106E-1,-3.741142E-1,-4.7895838E-2,-5.76374E-1,-3.2734087E-1,-4.8294392E-1,-7.0015585E-1,-7.8217983E-1,-1.3645767E0,-2.6671442E-1,-6.3944024E-1,-2.1424532E-1,2.281676E-2,-1.2235644E-1,2.2499038E-2,1.9800748E-1,5.705894E-2,3.6544392E-1,5.325337E-2,3.4705558E-1,2.510797E-1,5.060437E-1,6.313101E-1,4.5945498E-1,2.3344938E-1],"categories":[],"categories_nodes":[],"categories_segments":[],"categories_sizes":[],"default_left":[0,0,0,0,0,0,0,0,0,0,0,0,0,0,0,0,0,0,0,0,0,0,0,0,0,0,0,0,0,0,0,0,0,0,0,0,0,0,0,0,0,0,0,0,0,0,0,0,0,0,0,0,0,0,0,0,0,0,0,0,0,0,0,0,0,0,0,0,0,0,0,0,0,0,0,0,0,0,0,0,0,0,0,0,0,0,0,0,0,0,0,0,0,0,0,0,0,0,0,0,0,0,0,0,0,0,0,0,0,0,0,0,0,0,0,0,0,0,0,0,0,0,0,0,0,0,0],"id":2,"left_children":[1,3,5,7,9,11,13,15,17,19,21,23,25,27,29,31,33,35,37,39,41,43,45,47,49,51,53,55,57,59,61,63,65,67,69,71,73,75,77,79,81,83,85,87,89,91,93,95,97,99,101,103,105,107,109,111,113,115,117,119,121,123,125,-1,-1,-1,-1,-1,-1,-1,-1,-1,-1,-1,-1,-1,-1,-1,-1,-1,-1,-1,-1,-1,-1,-1,-1,-1,-1,-1,-1,-1,-1,-1,-1,-1,-1,-1,-1,-1,-1,-1,-1,-1,-1,-1,-1,-1,-1,-1,-1,-1,-1,-1,-1,-1,-1,-1,-1,-1,-1,-1,-1,-1,-1,-1,-1],"loss_changes":[2.5971332E6,7.3954156E5,1.3465294E6,3.4657112E5,1.8152588E5,2.7928625E5,1.7694725E5,9.973269E4,1.1178425E5,7.222575E4,2.0382818E4,4.2174125E4,2.579535E5,3.2571137E4,1.5512734E4,2.2678549E4,1.0110828E5,3.8006375E4,1.7626062E4,3.808083E4,1.6007859E4,9.538566E3,6.2224624E3,7.1286875E3,3.3743E4,5.0778844E4,2.452325E4,1.2009309E4,9.811244E3,1.8844805E3,4.3375E3,1.3248796E4,1.4898711E3,5.0769234E4,2.2677344E4,1.58580625E4,6.656422E3,1.0001125E4,4.029375E3,1.2913176E4,2.8268117E4,1.7875625E4,4.9612266E3,8.438484E3,4.512172E3,1.8668081E3,2.2194553E3,1.0614781E4,6.2843438E3,1.400775E4,2.3245125E4,1.5130359E4,3.2441219E4,8.8694375E3,2.62695E4,4.1419883E3,1.0046189E4,4.5888643E3,4.6186904E3,1.2528058E3,1.1863398E3,1.7436562E3,2.2694082E3,0E0,0E0,0E0,0E0,0E0,0E0,0E0,0E0,0E0,0E0,0E0,0E0,0E0,0E0,0E0,0E0,0E0,0E0,0E0,0E0,0E0,0E0,0E0,0E0,0E0,0E0,0E0,0E0,0E0,0E0,0E0,0E0,0E0,0E0,0E0,0E0,0E0,0E0,0E0,0E0,0E0,0E0,0E0,0E0,0E0,0E0,0E0,0E0,0E0,0E0,0E0,0E0,0E0,0E0,0E0,0E0,0E0,0E0,0E0,0E0,0E0,0E0,0E0,0E0],"parents":[2147483647,0,0,1,1,2,2,3,3,4,4,5,5,6,6,7,7,8,8,9,9,10,10,11,11,12,12,13,13,14,14,15,15,16,16,17,17,18,18,19,19,20,20,21,21,22,22,23,23,24,24,25,25,26,26,27,27,28,28,29,29,30,30,31,31,32,32,33,33,34,34,35,35,36,36,37,37,38,38,39,39,40,40,41,41,42,42,43,43,44,44,45,45,46,46,47,47,48,48,49,49,50,50,51,51,52,52,53,53,54,54,55,55,56,56,57,57,58,58,59,59,60,60,61,61,62,62],"right_children":[2,4,6,8,10,12,14,16,18,20,22,24,26,28,30,32,34,36,38,40,42,44,46,48,50,52,54,56,58,60,62,64,66,68,70,72,74,76,78,80,82,84,86,88,90,92,94,96,98,100,102,104,106,108,110,112,114,116,118,120,122,124,126,-1,-1,-1,-1,-1,-1,-1,-1,-1,-1,-1,-1,-1,-1,-1,-1,-1,-1,-1,-1,-1,-1,-1,-1,-1,-1,-1,-1,-1,-1,-1,-1,-1,-1,-1,-1,-1,-1,-1,-1,-1,-1,-1,-1,-1,-1,-1,-1,-1,-1,-1,-1,-1,-1,-1,-1,-1,-1,-1,-1,-1,-1,-1,-1],"split_conditions":[3.87167E1,1.016E3,3.1E0,5.1E0,4.1E0,4E0,6.8E0,-1.89167E1,1.009E3,1.021E3,1.022E3,4.54167E1,1.1E1,4.2E0,8E0,1.92E2,9.04086E1,5.5E1,1.013E3,2.22E0,5.838E1,6E0,6.9E0,2.04651E1,2.14333E1,4.25E1,4.381E1,6E0,5.3E0,6E0,3.7E1,-2.59653E1,4E0,2.624E1,2.44667E1,3.378E1,2.38E2,3.1E1,2.03E2,-2.11333E1,3.156E-1,-2.63167E1,3.378E1,-5.517E1,1.95E2,1.026E3,6.3E1,2.2E1,3E0,4.542E1,3E0,5E0,5E0,1.2E1,3.87E1,1.027E3,2.025E3,6E0,4.6E1,2.8E1,4.4E1,9E0,2.025E3,-1.6974023E-1,1.0583551E-1,-2.366267E-1,-3.7115875E-1,1.4571364E-1,-6.623461E-2,3.1581423E-1,3.489868E-2,7.246117E-1,4.8038036E-1,4.4019252E-1,9.518376E-2,4.8226482E-1,3.4926158E-1,2.8042543E-1,1.2296074E-1,-2.51091E-1,4.9859203E-2,-3.6076713E-1,-1.1628423E-1,-5.6269634E-1,-2.5024557E-1,-3.7864858E-1,-5.93888E-1,-2.6427877E-1,7.9769365E-2,1.9183196E-1,3.0899677E-2,-5.545024E-2,-1.7761523E-1,8.475043E-2,-5.115595E-2,-1.0099071E0,-5.4646254E-1,-8.0151826E-1,-5.8650327E-1,-1.3267564E0,-8.0860966E-1,-1.2875723E0,-8.214106E-1,-3.741142E-1,-4.7895838E-2,-5.76374E-1,-3.2734087E-1,-4.8294392E-1,-7.0015585E-1,-7.8217983E-1,-1.3645767E0,-2.6671442E-1,-6.3944024E-1,-2.1424532E-1,2.281676E-2,-1.2235644E-1,2.2499038E-2,1.9800748E-1,5.705894E-2,3.6544392E-1,5.325337E-2,3.4705558E-1,2.510797E-1,5.060437E-1,6.313101E-1,4.5945498E-1,2.3344938E-1],"split_indices":[2,8,13,13,13,23,13,2,8,8,8,2,23,13,13,1,3,10,8,17,3,13,13,3,3,2,2,23,13,23,10,2,23,2,2,2,1,10,0,2,2,2,2,3,0,8,10,1,23,2,23,23,23,23,3,8,22,23,10,10,10,13,22,0,0,0,0,0,0,0,0,0,0,0,0,0,0,0,0,0,0,0,0,0,0,0,0,0,0,0,0,0,0,0,0,0,0,0,0,0,0,0,0,0,0,0,0,0,0,0,0,0,0,0,0,0,0,0,0,0,0,0,0,0,0,0,0],"split_type":[0,0,0,0,0,0,0,0,0,0,0,0,0,0,0,0,0,0,0,0,0,0,0,0,0,0,0,0,0,0,0,0,0,0,0,0,0,0,0,0,0,0,0,0,0,0,0,0,0,0,0,0,0,0,0,0,0,0,0,0,0,0,0,0,0,0,0,0,0,0,0,0,0,0,0,0,0,0,0,0,0,0,0,0,0,0,0,0,0,0,0,0,0,0,0,0,0,0,0,0,0,0,0,0,0,0,0,0,0,0,0,0,0,0,0,0,0,0,0,0,0,0,0,0,0,0,0],"sum_hessian":[1.22241E5,8.6775E4,3.5466E4,6.1292E4,2.5483E4,2.4362E4,1.1104E4,3.9438E4,2.1854E4,1.5668E4,9.815E3,7.681E3,1.6681E4,7.828E3,3.276E3,2.731E3,3.6707E4,6.327E3,1.5527E4,9.931E3,5.737E3,6.86E3,2.955E3,3.206E3,4.475E3,1.1289E4,5.392E3,2.921E3,4.907E3,1.551E3,1.725E3,1.743E3,9.88E2,2.5157E4,1.155E4,3.985E3,2.342E3,8.43E3,7.097E3,3.884E3,6.047E3,4.636E3,1.101E3,2.067E3,4.793E3,1.408E3,1.547E3,1.397E3,1.809E3,3.224E3,1.251E3,2.325E3,8.964E3,1.908E3,3.484E3,1.121E3,1.8E3,2.544E3,2.363E3,1.71E2,1.38E3,1.223E3,5.02E2,8.59E2,8.84E2,3.06E2,6.82E2,2.1914E4,3.243E3,1.078E4,7.7E2,3.13E3,8.55E2,2.192E3,1.5E2,1.809E3,6.621E3,6.662E3,4.35E2,3.96E2,3.488E3,1.612E3,4.435E3,5.15E2,4.121E3,4.96E2,6.05E2,1.96E2,1.871E3,4.308E3,4.85E2,9.39E2,4.69E2,1.14E3,4.07E2,1.38E2,1.259E3,1.332E3,4.77E2,1.38E2,3.086E3,8.49E2,4.02E2,4.37E2,1.888E3,1.592E3,7.372E3,9.42E2,9.66E2,3.277E3,2.07E2,1.041E3,8E1,8.21E2,9.79E2,7.94E2,1.75E3,1.033E3,1.33E3,4.2E1,1.29E2,8.25E2,5.55E2,7.14E2,5.09E2,3.29E2,1.73E2],"tree_param":{"num_deleted":"0","num_feature":"26","num_nodes":"127","size_leaf_vector":"1"}},{"base_weights":[-2.189048E-4,2.7993026E0,-6.8497205E0,4.9051003E0,-8.558585E-1,-1.080172E1,1.8210956E0,3.4488542E0,8.50837E0,-2.502147E0,2.7469008E0,-1.5542635E1,-8.617898E0,-8.240171E-1,7.2615323E0,-2.266796E0,3.8212233E0,1.2574724E1,7.298587E0,-8.715211E-1,-5.300303E0,3.6360452E0,5.3087527E-1,-1.2902743E1,-1.7430613E1,-6.034991E0,-1.40234995E1,-3.1440263E0,6.6541415E-1,5.1020713E0,9.644492E0,-3.3482188E-1,-5.9797325E0,2.8427274E0,5.845103E0,1.4124653E1,9.350148E0,8.342137E0,6.0166483E0,1.0000223E0,-2.6010718E0,-9.34395E0,-4.6408434E0,5.039194E0,3.0536568E0,1.3479632E0,-9.937941E-1,-1.1358802E1,-1.427846E1,-1.5793329E1,-2.1634138E1,-8.178409E0,-4.070591E0,-1.0612659E1,-1.5249242E1,-7.0410323E0,-2.1655114E0,-1.5456505E0,1.4387289E0,1.5115834E0,5.729034E0,1.0991501E1,7.8893394E0,-1.4901216E-1,1.0965742E-1,-3.0509102E-1,1.7825449E-1,1.5624206E-1,-1.7046626E-1,3.6959743E-1,2.278157E-1,7.980327E-1,5.9678495E-1,4.9387637E-1,-8.69432E-3,4.7963366E-1,3.4002212E-1,3.2527745E-1,2.1894336E-1,-1.5605135E-1,8.500915E-2,-3.3260068E-1,-6.219854E-2,-2.0198528E-1,-5.169391E-1,-1.5883844E-1,-3.7517962E-1,2.4524031E-2,2.7653104E-1,1.0184728E-1,2.0537515E-1,1.0529719E-2,1.3892059E-1,-2.4332374E-2,-1.4211841E-1,-3.8136345E-1,-6.269886E-1,-8.2557815E-1,-6.5260994E-1,-1.260896E0,-7.6819235E-1,-1.2232693E0,-7.8044194E-1,-2.7673262E-1,-4.606133E-1,-2.3309946E-1,2.1430707E-1,-4.1697356E-1,-6.3919896E-1,-7.4178946E-1,-1.5080647E0,-3.1126714E-1,-6.13683E-1,-5.5634905E-2,-2.1050341E-1,-1.4428286E-1,5.2254822E-2,1.266695E-1,-3.0423382E-2,-6.464492E-3,2.6549956E-1,3.4830803E-1,2.3944953E-1,3.9653218E-1,5.7457674E-1,4.58119E-1,2.5221223E-1],"categories":[],"categories_nodes":[],"categories_segments":[],"categories_sizes":[],"default_left":[0,0,0,0,0,0,0,0,0,0,0,0,0,0,0,0,0,0,0,0,0,0,0,0,0,0,0,0,0,0,0,0,0,0,0,0,0,0,0,0,0,0,0,0,0,0,0,0,0,0,0,0,0,0,0,0,0,0,0,0,0,0,0,0,0,0,0,0,0,0,0,0,0,0,0,0,0,0,0,0,0,0,0,0,0,0,0,0,0,0,0,0,0,0,0,0,0,0,0,0,0,0,0,0,0,0,0,0,0,0,0,0,0,0,0,0,0,0,0,0,0,0,0,0,0,0,0],"id":3,"left_children":[1,3,5,7,9,11,13,15,17,19,21,23,25,27,29,31,33,35,37,39,41,43,45,47,49,51,53,55,57,59,61,63,65,67,69,71,73,75,77,79,81,83,85,87,89,91,93,95,97,99,101,103,105,107,109,111,113,115,117,119,121,123,125,-1,-1,-1,-1,-1,-1,-1,-1,-1,-1,-1,-1,-1,-1,-1,-1,-1,-1,-1,-1,-1,-1,-1,-1,-1,-1,-1,-1,-1,-1,-1,-1,-1,-1,-1,-1,-1,-1,-1,-1,-1,-1,-1,-1,-1,-1,-1,-1,-1,-1,-1,-1,-1,-1,-1,-1,-1,-1,-1,-1,-1,-1,-1,-1],"loss_changes":[2.3440495E6,6.679217E5,1.2153695E6,2.888685E5,1.8814395E5,2.521035E5,1.5981323E5,8.346478E4,7.7861125E4,9.933547E4,1.9601242E4,3.806275E4,2.3283238E5,2.5825E4,1.864589E4,1.7206738E4,7.288831E4,1.8020125E4,1.6290625E4,4.453304E4,2.1332281E4,5.7865703E3,3.551838E3,6.6495625E3,3.046375E4,4.7503562E4,2.238525E4,1.1127154E4,7.7854565E3,4.2864375E3,3.9939219E3,1.0566172E4,9.784707E2,4.3784406E4,2.3883E4,9.659875E3,5.938633E3,1.2911781E4,4.3634062E3,1.9072004E4,3.9299125E4,5.884117E3,2.8870828E4,4.6490664E3,5.3703477E3,3.0190293E3,9.3142737E2,6.5850938E3,4.4178125E3,1.26663125E4,2.0976188E4,1.47031875E4,2.914411E4,6.946672E3,2.3998438E4,2.4247578E3,5.025793E3,4.0995264E3,7.5603867E3,1.7770078E3,1.8552773E3,1.3996016E3,2.681086E3,0E0,0E0,0E0,0E0,0E0,0E0,0E0,0E0,0E0,0E0,0E0,0E0,0E0,0E0,0E0,0E0,0E0,0E0,0E0,0E0,0E0,0E0,0E0,0E0,0E0,0E0,0E0,0E0,0E0,0E0,0E0,0E0,0E0,0E0,0E0,0E0,0E0,0E0,0E0,0E0,0E0,0E0,0E0,0E0,0E0,0E0,0E0,0E0,0E0,0E0,0E0,0E0,0E0,0E0,0E0,0E0,0E0,0E0,0E0,0E0,0E0,0E0,0E0,0E0],"parents":[2147483647,0,0,1,1,2,2,3,3,4,4,5,5,6,6,7,7,8,8,9,9,10,10,11,11,12,12,13,13,14,14,15,15,16,16,17,17,18,18,19,19,20,20,21,21,22,22,23,23,24,24,25,25,26,26,27,27,28,28,29,29,30,30,31,31,32,32,33,33,34,34,35,35,36,36,37,37,38,38,39,39,40,40,41,41,42,42,43,43,44,44,45,45,46,46,47,47,48,48,49,49,50,50,51,51,52,52,53,53,54,54,55,55,56,56,57,57,58,58,59,59,60,60,61,61,62,62],"right_children":[2,4,6,8,10,12,14,16,18,20,22,24,26,28,30,32,34,36,38,40,42,44,46,48,50,52,54,56,58,60,62,64,66,68,70,72,74,76,78,80,82,84,86,88,90,92,94,96,98,100,102,104,106,108,110,112,114,116,118,120,122,124,126,-1,-1,-1,-1,-1,-1,-1,-1,-1,-1,-1,-1,-1,-1,-1,-1,-1,-1,-1,-1,-1,-1,-1,-1,-1,-1,-1,-1,-1,-1,-1,-1,-1,-1,-1,-1,-1,-1,-1,-1,-1,-1,-1,-1,-1,-1,-1,-1,-1,-1,-1,-1,-1,-1,-1,-1,-1,-1,-1,-1,-1,-1,-1,-1],"split_conditions":[3.87167E1,1.015E3,3.1E0,6.1E0,5.1E0,4E0,6.2E0,-1.81333E1,1.007E3,1.02E3,1.021E3,4.54167E1,1.1E1,4.2E0,8E0,2.01E2,9.04086E1,6.87739E1,1.012E3,2.75E0,-2.632E1,2.41E1,1.025E3,2.026E3,2.14333E1,1E0,4.25E1,5E0,6E0,6E0,3.2E1,-2.59653E1,2.6E2,2.25E2,7.6E1,3E1,2.38E2,5.7E1,5.1E1,-1.89167E1,3.156E-1,5E0,3.195E1,-8.8383E0,8E0,8E0,6.7E1,1.017E3,2E0,4.542E1,3E0,4.54167E1,1.1275E2,1.2E1,7.72E1,1.027E3,7.1E1,1.5E1,5.9E1,1.4E1,3.9E1,7.22E1,2.025E3,-1.4901216E-1,1.0965742E-1,-3.0509102E-1,1.7825449E-1,1.5624206E-1,-1.7046626E-1,3.6959743E-1,2.278157E-1,7.980327E-1,5.9678495E-1,4.9387637E-1,-8.69432E-3,4.7963366E-1,3.4002212E-1,3.2527745E-1,2.1894336E-1,-1.5605135E-1,8.500915E-2,-3.3260068E-1,-6.219854E-2,-2.0198528E-1,-5.169391E-1,-1.5883844E-1,-3.7517962E-1,2.4524031E-2,2.7653104E-1,1.0184728E-1,2.0537515E-1,1.0529719E-2,1.3892059E-1,-2.4332374E-2,-1.4211841E-1,-3.8136345E-1,-6.269886E-1,-8.2557815E-1,-6.5260994E-1,-1.260896E0,-7.6819235E-1,-1.2232693E0,-7.8044194E-1,-2.7673262E-1,-4.606133E-1,-2.3309946E-1,2.1430707E-1,-4.1697356E-1,-6.3919896E-1,-7.4178946E-1,-1.5080647E0,-3.1126714E-1,-6.13683E-1,-5.5634905E-2,-2.1050341E-1,-1.4428286E-1,5.2254822E-2,1.266695E-1,-3.0423382E-2,-6.464492E-3,2.6549956E-1,3.4830803E-1,2.3944953E-1,3.9653218E-1,5.7457674E-1,4.58119E-1,2.5221223E-1],"split_indices":[2,8,13,13,13,23,13,2,8,8,8,2,23,13,13,1,3,3,8,17,2,3,8,22,3,13,2,23,23,23,10,2,1,1,10,10,1,10,11,2,2,23,2,2,13,13,10,8,23,2,23,2,3,23,3,8,10,25,10,25,10,15,22,0,0,0,0,0,0,0,0,0,0,0,0,0,0,0,0,0,0,0,0,0,0,0,0,0,0,0,0,0,0,0,0,0,0,0,0,0,0,0,0,0,0,0,0,0,0,0,0,0,0,0,0,0,0,0,0,0,0,0,0,0,0,0,0],"split_type":[0,0,0,0,0,0,0,0,0,0,0,0,0,0,0,0,0,0,0,0,0,0,0,0,0,0,0,0,0,0,0,0,0,0,0,0,0,0,0,0,0,0,0,0,0,0,0,0,0,0,0,0,0,0,0,0,0,0,0,0,0,0,0,0,0,0,0,0,0,0,0,0,0,0,0,0,0,0,0,0,0,0,0,0,0,0,0,0,0,0,0,0,0,0,0,0,0,0,0,0,0,0,0,0,0,0,0,0,0,0,0,0,0,0,0,0,0,0,0,0,0,0,0,0,0,0,0],"sum_hessian":[1.22241E5,8.6775E4,3.5466E4,5.5056E4,3.1719E4,2.4362E4,1.1104E4,3.9211E4,1.5845E4,2.1771E4,9.948E3,7.681E3,1.6681E4,7.472E3,3.632E3,2.398E3,3.6813E4,3.631E3,1.2214E4,1.3756E4,8.015E3,7.099E3,2.849E3,3.206E3,4.475E3,1.1289E4,5.392E3,2.921E3,4.551E3,1.907E3,1.725E3,1.578E3,8.2E2,2.4817E4,1.1996E4,2.45E3,1.181E3,6.73E3,5.484E3,6.607E3,7.149E3,1.122E3,6.893E3,2.08E3,5.019E3,1.855E3,9.94E2,1.515E3,1.691E3,3.224E3,1.251E3,5.397E3,5.892E3,1.428E3,3.964E3,5.85E2,2.336E3,1.179E3,3.372E3,2.84E2,1.623E3,9.73E2,7.52E2,7.71E2,8.07E2,8.1E2,1E1,2.3746E4,1.071E3,5.45E3,6.546E3,1.329E3,1.121E3,1.119E3,6.2E1,3.713E3,3.017E3,4.221E3,1.263E3,9.59E2,5.648E3,1.793E3,5.356E3,1.78E2,9.44E2,4.562E3,2.331E3,2.03E2,1.877E3,2.556E3,2.463E3,1.034E3,8.21E2,7.81E2,2.13E2,3.66E2,1.149E3,5.95E2,1.096E3,1.38E2,3.086E3,8.49E2,4.02E2,1.519E3,3.878E3,5.503E3,3.89E2,7E2,7.28E2,3.859E3,1.05E2,5.08E2,7.7E1,1.543E3,7.93E2,7.77E2,4.02E2,2.197E3,1.175E3,1.99E2,8.5E1,6.98E2,9.25E2,1.39E2,8.34E2,5.18E2,2.34E2],"tree_param":{"num_deleted":"0","num_feature":"26","num_nodes":"127","size_leaf_vector":"1"}},{"base_weights":[-2.6283428E-4,2.6593666E0,-6.507495E0,4.361408E0,-1.4344133E0,-1.0262069E1,1.7301617E0,2.7527823E0,7.2640953E0,-3.3562446E0,1.633497E0,-1.4766352E1,-8.187247E0,-6.0291183E-1,7.303522E0,1.7935212E0,4.9138203E0,1.1035011E1,6.150892E0,-2.083711E0,-6.3972645E0,2.2432873E0,-1.1512401E0,-1.2258381E1,-1.6559984E1,-5.7333083E0,-1.3322938E1,-1.895971E0,2.0561197E0,5.230597E0,9.163242E0,2.3304272E0,-2.562319E0,-4.0931726E0,5.3609767E0,1.3008626E1,8.448102E0,7.3869576E0,5.2405643E0,-1.7708114E-1,-3.6802027E0,-5.6109495E0,-9.555228E0,1.1648667E0,3.3543165E0,-2.5535133E0,1.1764466E-1,-1.3926296E1,-1.102898E1,-1.5902325E1,-2.658765E1,-2.9556887E0,-7.134866E0,-1.1078153E1,-1.5029492E1,-5.8080683E0,-1.1588268E0,3.293758E0,6.920177E-1,6.7238626E0,4.543495E0,1.0095466E1,6.876551E0,1.333353E-1,-9.749529E-2,-3.0839968E-1,8.41286E-3,2.2024634E-1,-2.7491736E-1,2.8587627E-1,1.8417304E-2,7.167183E-1,4.475995E-1,4.4439092E-1,1.680377E-2,4.1305137E-1,2.8121495E-1,2.7377632E-1,1.4499235E-1,-2.2244278E-1,2.234795E-2,-3.661935E-1,-1.2332232E-1,-5.7644933E-1,-2.5598717E-1,-6.5919554E-1,-4.1093096E-1,-3.5662222E-1,6.852239E-2,2.5037566E-1,1.4970696E-1,-5.308513E-1,-1.2018136E-1,4.4111054E-2,-9.029132E-2,-7.4201125E-1,-5.7102484E-1,-4.7159168E-1,-6.5106106E-1,-8.72168E-1,-6.460394E-1,-1.4524972E0,-9.7701186E-1,-3.0043063E-1,-6.264838E-2,-5.4737103E-1,-3.1565815E-1,-4.5769307E-1,-6.4641327E-1,-7.155766E-1,-1.2404238E0,-1.8281327E-1,-3.9277807E-1,-1.5026939E-2,-1.7613399E-1,4.1033067E-2,2.0301102E-1,-1.9282451E-1,4.903246E-2,3.8710102E-1,2.8557178E-1,2.4574943E-2,2.4998918E-1,4.548218E-1,5.738136E-1,2.094947E-1,4.1423616E-1],"categories":[],"categories_nodes":[],"categories_segments":[],"categories_sizes":[],"default_left":[0,0,0,0,0,0,0,0,0,0,0,0,0,0,0,0,0,0,0,0,0,0,0,0,0,0,0,0,0,0,0,0,0,0,0,0,0,0,0,0,0,0,0,0,0,0,0,0,0,0,0,0,0,0,0,0,0,0,0,0,0,0,0,0,0,0,0,0,0,0,0,0,0,0,0,0,0,0,0,0,0,0,0,0,0,0,0,0,0,0,0,0,0,0,0,0,0,0,0,0,0,0,0,0,0,0,0,0,0,0,0,0,0,0,0,0,0,0,0,0,0,0,0,0,0,0,0],"id":4,"left_children":[1,3,5,7,9,11,13,15,17,19,21,23,25,27,29,31,33,35,37,39,41,43,45,47,49,51,53,55,57,59,61,63,65,67,69,71,73,75,77,79,81,83,85,87,89,91,93,95,97,99,101,103,105,107,109,111,113,115,117,119,121,123,125,-1,-1,-1,-1,-1,-1,-1,-1,-1,-1,-1,-1,-1,-1,-1,-1,-1,-1,-1,-1,-1,-1,-1,-1,-1,-1,-1,-1,-1,-1,-1,-1,-1,-1,-1,-1,-1,-1,-1,-1,-1,-1,-1,-1,-1,-1,-1,-1,-1,-1,-1,-1,-1,-1,-1,-1,-1,-1,-1,-1,-1,-1,-1,-1],"loss_changes":[2.1156382E6,6.046425E5,1.0969726E6,2.8617775E5,1.5025928E5,2.275655E5,1.4440338E5,8.174822E4,9.1675E4,6.062258E4,1.6671195E4,3.43535E4,2.1016138E5,2.692223E4,1.2585109E4,6.3889258E4,4.885175E4,2.5315875E4,1.8950625E4,3.362856E4,1.1423531E4,9.644852E3,3.1390266E3,6.4224688E3,2.90955E4,4.3930844E4,2.0493312E4,1.5185021E4,4.3230557E3,1.5618398E3,3.6099062E3,3.500964E4,2.951805E4,6.878533E3,2.0560031E4,1.5053875E4,7.694578E3,1.0977156E4,5.3310312E3,1.3426748E4,2.657457E4,1.07055E4,4.3537656E3,6.982967E3,2.3465352E3,9.872954E2,1.3648768E3,2.9382188E3,5.7668906E3,1.9086E4,4.1870312E3,1.968355E4,2.3436219E4,8.1875E3,2.1135938E4,3.650121E3,8.9949375E3,2.542373E3,1.6054504E3,4.577871E2,1.9684492E3,1.5840859E3,1.8682754E3,0E0,0E0,0E0,0E0,0E0,0E0,0E0,0E0,0E0,0E0,0E0,0E0,0E0,0E0,0E0,0E0,0E0,0E0,0E0,0E0,0E0,0E0,0E0,0E0,0E0,0E0,0E0,0E0,0E0,0E0,0E0,0E0,0E0,0E0,0E0,0E0,0E0,0E0,0E0,0E0,0E0,0E0,0E0,0E0,0E0,0E0,0E0,0E0,0E0,0E0,0E0,0E0,0E0,0E0,0E0,0E0,0E0,0E0,0E0,0E0,0E0,0E0,0E0,0E0],"parents":[2147483647,0,0,1,1,2,2,3,3,4,4,5,5,6,6,7,7,8,8,9,9,10,10,11,11,12,12,13,13,14,14,15,15,16,16,17,17,18,18,19,19,20,20,21,21,22,22,23,23,24,24,25,25,26,26,27,27,28,28,29,29,30,30,31,31,32,32,33,33,34,34,35,35,36,36,37,37,38,38,39,39,40,40,41,41,42,42,43,43,44,44,45,45,46,46,47,47,48,48,49,49,50,50,51,51,52,52,53,53,54,54,55,55,56,56,57,57,58,58,59,59,60,60,61,61,62,62],"right_children":[2,4,6,8,10,12,14,16,18,20,22,24,26,28,30,32,34,36,38,40,42,44,46,48,50,52,54,56,58,60,62,64,66,68,70,72,74,76,78,80,82,84,86,88,90,92,94,96,98,100,102,104,106,108,110,112,114,116,118,120,122,124,126,-1,-1,-1,-1,-1,-1,-1,-1,-1,-1,-1,-1,-1,-1,-1,-1,-1,-1,-1,-1,-1,-1,-1,-1,-1,-1,-1,-1,-1,-1,-1,-1,-1,-1,-1,-1,-1,-1,-1,-1,-1,-1,-1,-1,-1,-1,-1,-1,-1,-1,-1,-1,-1,-1,-1,-1,-1,-1,-1,-1,-1,-1,-1,-1],"split_conditions":[3.87167E1,1.016E3,3.1E0,5.1E0,4.1E0,4E0,6.8E0,9.04086E1,1.008E3,1.022E3,1.024E3,4.54167E1,1.1E1,5.1E0,8E0,2.15E2,-3.48581E1,4.6E1,1.012E3,3.05E0,5.838E1,7E0,7E0,3.6E1,3.87E1,4.54167E1,4.54167E1,5E0,4.9E1,3.4E1,3.7E1,3.178E1,4.1E1,4.5E1,2.44667E1,3.378E1,2.38E2,6.8E1,7.6E1,-2.11333E1,3.156E-1,-2.93167E1,3E0,-2.93167E1,2.61E1,2.1E1,6.2E1,3E0,2.026E3,3E0,3E0,6E0,5E0,1.2E1,3.87E1,1.018E3,7.1E1,6E0,5E0,1.013E3,6E0,9E0,1.4E1,1.333353E-1,-9.749529E-2,-3.0839968E-1,8.41286E-3,2.2024634E-1,-2.7491736E-1,2.8587627E-1,1.8417304E-2,7.167183E-1,4.475995E-1,4.4439092E-1,1.680377E-2,4.1305137E-1,2.8121495E-1,2.7377632E-1,1.4499235E-1,-2.2244278E-1,2.234795E-2,-3.661935E-1,-1.2332232E-1,-5.7644933E-1,-2.5598717E-1,-6.5919554E-1,-4.1093096E-1,-3.5662222E-1,6.852239E-2,2.5037566E-1,1.4970696E-1,-5.308513E-1,-1.2018136E-1,4.4111054E-2,-9.029132E-2,-7.4201125E-1,-5.7102484E-1,-4.7159168E-1,-6.5106106E-1,-8.72168E-1,-6.460394E-1,-1.4524972E0,-9.7701186E-1,-3.0043063E-1,-6.264838E-2,-5.4737103E-1,-3.1565815E-1,-4.5769307E-1,-6.4641327E-1,-7.155766E-1,-1.2404238E0,-1.8281327E-1,-3.9277807E-1,-1.5026939E-2,-1.7613399E-1,4.1033067E-2,2.0301102E-1,-1.9282451E-1,4.903246E-2,3.8710102E-1,2.8557178E-1,2.4574943E-2,2.4998918E-1,4.548218E-1,5.738136E-1,2.094947E-1,4.1423616E-1],"split_indices":[2,8,13,13,13,23,13,3,8,8,8,2,23,13,13,1,2,10,8,17,3,13,13,4,3,2,2,23,10,10,10,2,0,10,2,2,1,10,11,2,2,2,23,2,3,0,10,23,22,23,23,23,23,23,3,8,10,23,23,8,23,13,25,0,0,0,0,0,0,0,0,0,0,0,0,0,0,0,0,0,0,0,0,0,0,0,0,0,0,0,0,0,0,0,0,0,0,0,0,0,0,0,0,0,0,0,0,0,0,0,0,0,0,0,0,0,0,0,0,0,0,0,0,0,0,0,0],"split_type":[0,0,0,0,0,0,0,0,0,0,0,0,0,0,0,0,0,0,0,0,0,0,0,0,0,0,0,0,0,0,0,0,0,0,0,0,0,0,0,0,0,0,0,0,0,0,0,0,0,0,0,0,0,0,0,0,0,0,0,0,0,0,0,0,0,0,0,0,0,0,0,0,0,0,0,0,0,0,0,0,0,0,0,0,0,0,0,0,0,0,0,0,0,0,0,0,0,0,0,0,0,0,0,0,0,0,0,0,0,0,0,0,0,0,0,0,0,0,0,0,0,0,0,0,0,0,0],"sum_hessian":[1.22241E5,8.6775E4,3.5466E4,6.1292E4,2.5483E4,2.4362E4,1.1104E4,3.9438E4,2.1854E4,1.5668E4,9.815E3,7.681E3,1.6681E4,7.828E3,3.276E3,2.7315E4,1.2123E4,4.979E3,1.6875E4,1.1047E4,4.621E3,8.052E3,1.763E3,3.206E3,4.475E3,1.1289E4,5.392E3,5.267E3,2.561E3,1.551E3,1.725E3,2.4318E4,2.997E3,5.73E2,1.155E4,2.822E3,2.157E3,7.154E3,9.721E3,5.035E3,6.012E3,3.702E3,9.19E2,4.087E3,3.965E3,8.37E2,9.26E2,1.356E3,1.85E3,4.202E3,2.73E2,3.787E3,7.502E3,2.332E3,3.06E3,8.34E2,4.433E3,1.342E3,1.219E3,4.86E2,1.065E3,1.223E3,5.02E2,2.2547E4,1.771E3,1.291E3,1.706E3,8.1E1,4.92E2,1.078E4,7.7E2,2.125E3,6.97E2,2.046E3,1.11E2,4.78E3,2.374E3,8.833E3,8.88E2,6.41E2,4.394E3,1.501E3,4.511E3,2.82E2,3.42E3,2.45E2,6.74E2,9.8E1,3.989E3,7.07E2,3.258E3,1.4E1,8.23E2,6.63E2,2.63E2,9.9E2,3.66E2,1.03E3,8.2E2,2.767E3,1.435E3,2E2,7.3E1,1.355E3,2.432E3,1.328E3,6.174E3,1.146E3,1.186E3,2.853E3,2.07E2,4.08E2,4.26E2,3.253E3,1.18E3,3.18E2,1.024E3,7.2E1,1.147E3,2.39E2,2.47E2,1.08E2,9.57E2,7.14E2,5.09E2,1.74E2,3.28E2],"tree_param":{"num_deleted":"0","num_feature":"26","num_nodes":"127","size_leaf_vector":"1"}},{"base_weights":[-3.249605E-4,2.526393E0,-6.1823664E0,4.4328585E0,-7.8277445E-1,-9.749403E0,1.6438276E0,2.8786569E0,7.210275E0,-2.2721715E0,2.4766424E0,-1.4028865E1,-7.7781415E0,-7.465221E-1,6.5602713E0,1.9143527E0,4.788541E0,1.1591393E1,6.3569837E0,-5.1441324E-1,-4.4398828E0,3.2870364E0,4.5689657E-1,-1.1646221E1,-1.5732867E1,-5.446751E0,-1.2657359E1,-2.872118E0,6.180951E-1,4.615747E0,8.706037E0,2.3174593E0,-3.5218024E0,-3.85119E0,5.190409E0,1.3165179E1,8.5181675E0,7.6455274E0,5.4866085E0,1.0053464E0,-2.2808604E0,-8.393965E0,-3.8288758E0,3.558154E0,6.0034335E-1,1.0471045E0,-1.2744676E0,-1.004299E1,-1.2878083E1,-1.4209944E1,-1.9643166E1,-8.017401E0,-3.9791965E0,-9.52925E0,-1.3781548E1,-5.1699033E0,-1.4390322E0,-1.4008882E0,1.3242269E0,1.3489041E0,5.1862116E0,2.3923213E0,9.027571E0,1.3003264E-1,-8.543073E-2,-3.2432684E-1,-3.6685914E-2,-2.496305E-1,2.7323237E-1,3.152627E-1,1.7937337E-1,7.474873E-1,5.540496E-1,4.4590482E-1,4.0413838E-2,4.510828E-1,3.0264255E-1,2.863415E-1,1.4843942E-1,7.892847E-2,-1.6022585E-1,-3.15798E-1,-4.679625E-2,-1.8085866E-1,-4.6960258E-1,-1.2388374E-1,-3.2349476E-1,1.3577683E-1,2.1186712E-1,-8.102096E-2,1.0293305E-1,3.4130446E-3,1.1505216E-1,-9.6996084E-2,1.4615468E-2,-8.9753705E-1,-4.581328E-1,-5.6753933E-1,-7.508321E-1,-1.1592396E0,-6.900613E-1,-1.1117934E0,-7.062973E-1,-2.190044E-1,-4.3105838E-1,-2.2517224E-1,2.0557249E-1,-3.7330264E-1,-5.7500654E-1,-6.701468E-1,-1.3719368E0,-2.3484814E-1,-5.59504E-1,-1.9161823E-1,2.8495237E-2,-1.3219813E-1,5.0118446E-2,1.390609E-1,1.0145233E-3,-8.970499E-3,2.4437189E-1,3.0024904E-1,1.9322295E-1,3.8802075E-1,5.1753808E-2,5.0813913E-1,3.761546E-1],"categories":[],"categories_nodes":[],"categories_segments":[],"categories_sizes":[],"default_left":[0,0,0,0,0,0,0,0,0,0,0,0,0,0,0,0,0,0,0,0,0,0,0,0,0,0,0,0,0,0,0,0,0,0,0,0,0,0,0,0,0,0,0,0,0,0,0,0,0,0,0,0,0,0,0,0,0,0,0,0,0,0,0,0,0,0,0,0,0,0,0,0,0,0,0,0,0,0,0,0,0,0,0,0,0,0,0,0,0,0,0,0,0,0,0,0,0,0,0,0,0,0,0,0,0,0,0,0,0,0,0,0,0,0,0,0,0,0,0,0,0,0,0,0,0,0,0],"id":5,"left_children":[1,3,5,7,9,11,13,15,17,19,21,23,25,27,29,31,33,35,37,39,41,43,45,47,49,51,53,55,57,59,61,63,65,67,69,71,73,75,77,79,81,83,85,87,89,91,93,95,97,99,101,103,105,107,109,111,113,115,117,119,121,123,125,-1,-1,-1,-1,-1,-1,-1,-1,-1,-1,-1,-1,-1,-1,-1,-1,-1,-1,-1,-1,-1,-1,-1,-1,-1,-1,-1,-1,-1,-1,-1,-1,-1,-1,-1,-1,-1,-1,-1,-1,-1,-1,-1,-1,-1,-1,-1,-1,-1,-1,-1,-1,-1,-1,-1,-1,-1,-1,-1,-1,-1,-1,-1,-1],"loss_changes":[1.9094692E6,5.4745706E5,9.90124E5,2.3764188E5,1.5399245E5,2.0541575E5,1.3051107E5,6.50105E4,7.3774125E4,8.295582E4,1.628293E4,3.1005875E4,1.8969469E5,2.1678145E4,1.5118484E4,5.1419438E4,4.1142812E4,1.5456875E4,1.8503438E4,3.2281623E4,2.3521156E4,5.1695703E3,2.9136494E3,6.2044062E3,2.6375875E4,4.2560375E4,1.8833625E4,9.614482E3,6.4914966E3,3.548793E3,3.4823125E3,2.490775E4,1.3386045E4,5.631023E3,2.0202969E4,7.7454375E3,3.3629453E3,1.4551094E4,5.9545312E3,1.5603923E4,3.017335E4,6.183047E3,3.0123945E4,3.6792344E3,2.1148882E3,2.6093171E3,7.564651E2,9.567641E3,5.741375E3,1.1509875E4,1.7595125E4,8.970594E3,3.0510695E4,5.7248984E3,2.0134438E4,3.1419824E3,8.661489E3,3.527814E3,6.4080483E3,1.5421543E3,1.7343008E3,6.11262E2,2.7279219E3,0E0,0E0,0E0,0E0,0E0,0E0,0E0,0E0,0E0,0E0,0E0,0E0,0E0,0E0,0E0,0E0,0E0,0E0,0E0,0E0,0E0,0E0,0E0,0E0,0E0,0E0,0E0,0E0,0E0,0E0,0E0,0E0,0E0,0E0,0E0,0E0,0E0,0E0,0E0,0E0,0E0,0E0,0E0,0E0,0E0,0E0,0E0,0E0,0E0,0E0,0E0,0E0,0E0,0E0,0E0,0E0,0E0,0E0,0E0,0E0,0E0,0E0,0E0,0E0],"parents":[2147483647,0,0,1,1,2,2,3,3,4,4,5,5,6,6,7,7,8,8,9,9,10,10,11,11,12,12,13,13,14,14,15,15,16,16,17,17,18,18,19,19,20,20,21,21,22,22,23,23,24,24,25,25,26,26,27,27,28,28,29,29,30,30,31,31,32,32,33,33,34,34,35,35,36,36,37,37,38,38,39,39,40,40,41,41,42,42,43,43,44,44,45,45,46,46,47,47,48,48,49,49,50,50,51,51,52,52,53,53,54,54,55,55,56,56,57,57,58,58,59,59,60,60,61,61,62,62],"right_children":[2,4,6,8,10,12,14,16,18,20,22,24,26,28,30,32,34,36,38,40,42,44,46,48,50,52,54,56,58,60,62,64,66,68,70,72,74,76,78,80,82,84,86,88,90,92,94,96,98,100,102,104,106,108,110,112,114,116,118,120,122,124,126,-1,-1,-1,-1,-1,-1,-1,-1,-1,-1,-1,-1,-1,-1,-1,-1,-1,-1,-1,-1,-1,-1,-1,-1,-1,-1,-1,-1,-1,-1,-1,-1,-1,-1,-1,-1,-1,-1,-1,-1,-1,-1,-1,-1,-1,-1,-1,-1,-1,-1,-1,-1,-1,-1,-1,-1,-1,-1,-1,-1,-1,-1,-1,-1],"split_conditions":[3.87167E1,1.015E3,3.1E0,5.1E0,5.1E0,4E0,6.2E0,9.04086E1,1.006E3,1.019E3,1.021E3,4.54167E1,1.1E1,4.2E0,8E0,2.23E2,-3.48581E1,6.87739E1,1.011E3,3.35E0,-2.63167E1,2.03E2,1.026E3,2.04651E1,2.14333E1,7E-1,4.25E1,6E0,6E0,6E0,6E0,3.178E1,3.6E1,1.1E0,8E1,3E1,2.3E2,5.7E1,7.6E1,2.25E2,3.156E-1,5E0,3.178E1,1.12E1,2.04E2,8E0,8.23E1,2.2E1,1.023E3,4.542E1,3E0,4.2E1,1.1275E2,1.2E1,7.72E1,1.027E3,2.025E3,1.5E1,5.2E1,1.4E1,4.4804E1,2.4E1,3.2E1,1.3003264E-1,-8.543073E-2,-3.2432684E-1,-3.6685914E-2,-2.496305E-1,2.7323237E-1,3.152627E-1,1.7937337E-1,7.474873E-1,5.540496E-1,4.4590482E-1,4.0413838E-2,4.510828E-1,3.0264255E-1,2.863415E-1,1.4843942E-1,7.892847E-2,-1.6022585E-1,-3.15798E-1,-4.679625E-2,-1.8085866E-1,-4.6960258E-1,-1.2388374E-1,-3.2349476E-1,1.3577683E-1,2.1186712E-1,-8.102096E-2,1.0293305E-1,3.4130446E-3,1.1505216E-1,-9.6996084E-2,1.4615468E-2,-8.9753705E-1,-4.581328E-1,-5.6753933E-1,-7.508321E-1,-1.1592396E0,-6.900613E-1,-1.1117934E0,-7.062973E-1,-2.190044E-1,-4.3105838E-1,-2.2517224E-1,2.0557249E-1,-3.7330264E-1,-5.7500654E-1,-6.701468E-1,-1.3719368E0,-2.3484814E-1,-5.59504E-1,-1.9161823E-1,2.8495237E-2,-1.3219813E-1,5.0118446E-2,1.390609E-1,1.0145233E-3,-8.970499E-3,2.4437189E-1,3.0024904E-1,1.9322295E-1,3.8802075E-1,5.1753808E-2,5.0813913E-1,3.761546E-1],"split_indices":[2,8,13,13,13,23,13,3,8,8,8,2,23,13,13,1,2,3,8,17,2,0,8,3,3,13,2,23,23,23,23,2,0,13,10,10,1,10,11,1,2,23,2,5,0,13,15,1,8,2,23,2,3,23,3,8,22,25,10,25,2,10,10,0,0,0,0,0,0,0,0,0,0,0,0,0,0,0,0,0,0,0,0,0,0,0,0,0,0,0,0,0,0,0,0,0,0,0,0,0,0,0,0,0,0,0,0,0,0,0,0,0,0,0,0,0,0,0,0,0,0,0,0,0,0,0,0],"split_type":[0,0,0,0,0,0,0,0,0,0,0,0,0,0,0,0,0,0,0,0,0,0,0,0,0,0,0,0,0,0,0,0,0,0,0,0,0,0,0,0,0,0,0,0,0,0,0,0,0,0,0,0,0,0,0,0,0,0,0,0,0,0,0,0,0,0,0,0,0,0,0,0,0,0,0,0,0,0,0,0,0,0,0,0,0,0,0,0,0,0,0,0,0,0,0,0,0,0,0,0,0,0,0,0,0,0,0,0,0,0,0,0,0,0,0,0,0,0,0,0,0,0,0,0,0,0,0],"sum_hessian":[1.22241E5,8.6775E4,3.5466E4,5.5056E4,3.1719E4,2.4362E4,1.1104E4,3.5303E4,1.9753E4,2.1771E4,9.948E3,7.681E3,1.6681E4,7.472E3,3.632E3,2.346E4,1.1843E4,3.218E3,1.6535E4,1.2023E4,9.748E3,7.099E3,2.849E3,3.206E3,4.475E3,1.1289E4,5.392E3,2.921E3,4.551E3,1.907E3,1.725E3,2.1841E4,1.619E3,5.26E2,1.1317E4,2.126E3,1.092E3,6.663E3,9.872E3,6.463E3,5.56E3,1.303E3,8.445E3,6.448E3,6.51E2,2.125E3,7.24E2,1.397E3,1.809E3,3.224E3,1.251E3,4.101E3,7.188E3,1.428E3,3.964E3,1.121E3,1.8E3,1.179E3,3.372E3,2.84E2,1.623E3,8.4E1,1.641E3,2.0406E4,1.435E3,7.84E2,8.35E2,4.69E2,5.7E1,6.673E3,4.644E3,1.142E3,9.84E2,1.038E3,5.4E1,3.572E3,3.091E3,9.011E3,8.61E2,5.689E3,7.74E2,1.389E3,4.171E3,2.26E2,1.077E3,5.588E3,2.857E3,2.88E3,3.568E3,2.58E2,3.93E2,1.194E3,9.31E2,5.08E2,2.16E2,1.38E2,1.259E3,1.059E3,7.5E2,1.38E2,3.086E3,8.49E2,4.02E2,5.85E2,3.516E3,6.751E3,4.37E2,7E2,7.28E2,3.859E3,1.05E2,1.041E3,8E1,8.21E2,9.79E2,7.77E2,4.02E2,1.592E3,1.78E3,1.99E2,8.5E1,1E3,6.23E2,1.6E1,6.8E1,9.32E2,7.09E2],"tree_param":{"num_deleted":"0","num_feature":"26","num_nodes":"127","size_leaf_vector":"1"}},{"base_weights":[-3.6432742E-4,2.400097E0,-5.8734975E0,3.9389598E0,-1.3012034E0,-9.89263E0,4.1364917E-1,2.486811E0,6.5592923E0,-3.047766E0,1.4869173E0,-1.3673733E1,-8.029305E0,-2.5149314E0,4.6678066E0,-2.4057167E0,2.8508704E0,9.470644E0,5.372431E0,-1.8802742E0,-5.8377705E0,2.2704675E0,-3.322388E-1,-1.0417879E1,-1.4731901E1,-5.6543713E0,-1.2126989E1,-6.5891733E0,-1.4056842E0,3.0778582E0,8.2715025E0,-7.000728E-1,-5.411012E0,1.9375321E0,4.839868E0,1.132664E1,7.1548624E0,6.187399E0,4.403655E0,2.0839113E-1,-3.1051905E0,-4.9368796E0,-8.193717E0,1.3355782E0,3.2396579E0,-1.5762496E0,8.002828E-1,-8.340227E0,-1.1996448E1,-1.3604338E1,-1.8495848E1,-1.8517436E0,-6.636181E0,-1.0134677E1,-1.35994835E1,-5.1208496E0,-9.172665E0,-4.2523992E-1,-3.6486278E0,4.354176E0,1.6361661E0,5.9431973E0,9.102813E0,-1.5762578E-1,8.4194146E-2,-1.8328081E-1,-3.093812E-1,1.15661226E-1,-9.920206E-2,2.7984402E-1,1.3254026E-1,6.2333614E-1,3.8174185E-1,3.7821624E-1,4.2543214E-2,3.38942E-1,2.3077004E-1,-2.5622904E-1,2.2298694E-1,-2.2419786E-1,3.9453503E-2,-2.9272103E-1,-1.0562165E-1,-4.6555135E-1,-2.1365581E-1,-2.5677153E-1,-5.45255E-1,-3.3657062E-1,7.620825E-2,1.7415684E-1,4.385301E-2,-4.323517E-2,-1.497994E-1,7.175998E-2,-4.8863336E-2,-4.8928067E-1,-3.3726367E-1,-5.207049E-1,-7.0689815E-1,-7.538782E-1,-5.8507675E-1,-8.729995E-1,-1.3251308E0,-1.6506033E-1,9.696445E-2,-5.142385E-1,-2.912713E-1,-6.4449996E-1,-4.5879173E-1,-6.4704067E-1,-1.1276411E0,-3.5875562E-1,-1.677002E-1,-5.018968E-1,-1.8449937E-1,-7.937964E-2,5.00892E-2,-1.3072759E-1,-2.3620938E-1,1.00455955E-1,2.4200132E-1,-4.6565913E-2,1.08051315E-1,1.7861985E-1,4.0453687E-1,3.992537E-1,5.641536E-1],"categories":[],"categories_nodes":[],"categories_segments":[],"categories_sizes":[],"default_left":[0,0,0,0,0,0,0,0,0,0,0,0,0,0,0,0,0,0,0,0,0,0,0,0,0,0,0,0,0,0,0,0,0,0,0,0,0,0,0,0,0,0,0,0,0,0,0,0,0,0,0,0,0,0,0,0,0,0,0,0,0,0,0,0,0,0,0,0,0,0,0,0,0,0,0,0,0,0,0,0,0,0,0,0,0,0,0,0,0,0,0,0,0,0,0,0,0,0,0,0,0,0,0,0,0,0,0,0,0,0,0,0,0,0,0,0,0,0,0,0,0,0,0,0,0,0,0],"id":6,"left_children":[1,3,5,7,9,11,13,15,17,19,21,23,25,27,29,31,33,35,37,39,41,43,45,47,49,51,53,55,57,59,61,63,65,67,69,71,73,75,77,79,81,83,85,87,89,91,93,95,97,99,101,103,105,107,109,111,113,115,117,119,121,123,125,-1,-1,-1,-1,-1,-1,-1,-1,-1,-1,-1,-1,-1,-1,-1,-1,-1,-1,-1,-1,-1,-1,-1,-1,-1,-1,-1,-1,-1,-1,-1,-1,-1,-1,-1,-1,-1,-1,-1,-1,-1,-1,-1,-1,-1,-1,-1,-1,-1,-1,-1,-1,-1,-1,-1,-1,-1,-1,-1,-1,-1,-1,-1,-1],"loss_changes":[1.7234098E6,4.9426334E5,8.962154E5,2.3321056E5,1.2410212E5,1.5232475E5,1.7233967E5,7.0254484E4,7.546631E4,5.1027766E4,1.3992482E4,2.4449E4,1.4100262E5,3.7017695E4,3.2289984E4,1.4000344E4,6.6675375E4,2.7117188E4,1.2232406E4,2.826629E4,9.769516E3,6.212328E3,4.1658784E3,5.6558438E3,2.261125E4,3.4257125E4,1.5463375E4,6.6028594E3,1.416273E4,7.196703E3,3.2866484E3,1.0201631E4,1.3179043E3,3.7070016E4,1.9126875E4,1.4682469E4,7.2675312E3,7.8074062E3,3.8158594E3,1.1134132E4,1.8994617E4,9.674992E3,1.0533125E4,5.325778E3,1.9343594E3,1.4207947E3,1.7484689E3,1.6883438E3,3.2244531E3,1.145425E4,9.813375E3,1.0364403E4,2.15195E4,5.8630156E3,1.7724438E4,4.0410488E3,2.9706562E3,7.4375664E3,2.1664707E3,2.3555586E3,2.481543E3,2.2978633E3,3.0048438E3,0E0,0E0,0E0,0E0,0E0,0E0,0E0,0E0,0E0,0E0,0E0,0E0,0E0,0E0,0E0,0E0,0E0,0E0,0E0,0E0,0E0,0E0,0E0,0E0,0E0,0E0,0E0,0E0,0E0,0E0,0E0,0E0,0E0,0E0,0E0,0E0,0E0,0E0,0E0,0E0,0E0,0E0,0E0,0E0,0E0,0E0,0E0,0E0,0E0,0E0,0E0,0E0,0E0,0E0,0E0,0E0,0E0,0E0,0E0,0E0,0E0,0E0,0E0,0E0],"parents":[2147483647,0,0,1,1,2,2,3,3,4,4,5,5,6,6,7,7,8,8,9,9,10,10,11,11,12,12,13,13,14,14,15,15,16,16,17,17,18,18,19,19,20,20,21,21,22,22,23,23,24,24,25,25,26,26,27,27,28,28,29,29,30,30,31,31,32,32,33,33,34,34,35,35,36,36,37,37,38,38,39,39,40,40,41,41,42,42,43,43,44,44,45,45,46,46,47,47,48,48,49,49,50,50,51,51,52,52,53,53,54,54,55,55,56,56,57,57,58,58,59,59,60,60,61,61,62,62],"right_children":[2,4,6,8,10,12,14,16,18,20,22,24,26,28,30,32,34,36,38,40,42,44,46,48,50,52,54,56,58,60,62,64,66,68,70,72,74,76,78,80,82,84,86,88,90,92,94,96,98,100,102,104,106,108,110,112,114,116,118,120,122,124,126,-1,-1,-1,-1,-1,-1,-1,-1,-1,-1,-1,-1,-1,-1,-1,-1,-1,-1,-1,-1,-1,-1,-1,-1,-1,-1,-1,-1,-1,-1,-1,-1,-1,-1,-1,-1,-1,-1,-1,-1,-1,-1,-1,-1,-1,-1,-1,-1,-1,-1,-1,-1,-1,-1,-1,-1,-1,-1,-1,-1,-1,-1,-1,-1],"split_conditions":[3.87167E1,1.016E3,2.2E0,5.1E0,4.1E0,4E0,5.3E0,-1.89167E1,1.009E3,1.022E3,1.022E3,4.25E1,1.1E1,5E0,8E0,1.92E2,9.04086E1,4.9E1,1.013E3,2.04E0,4.659E1,7E0,6.9E0,2.04651E1,2.47281E1,4.25E1,4.54167E1,1.022E3,7.1E1,4.6E1,1.4E1,-2.59653E1,4E0,3.178E1,8.5E1,3.378E1,2.36E2,7.2E1,1E0,-2.11333E1,3.156E-1,-2.63167E1,3.378E1,-2.93167E1,1.93E2,1.026E3,6.3E1,1.18E2,1.023E3,1E1,7.72E1,1.6E1,5E0,2.6E1,3.87E1,2.345E1,2.8E1,1.147E1,8E1,6E0,6E0,7E0,8.5E0,-1.5762578E-1,8.4194146E-2,-1.8328081E-1,-3.093812E-1,1.15661226E-1,-9.920206E-2,2.7984402E-1,1.3254026E-1,6.2333614E-1,3.8174185E-1,3.7821624E-1,4.2543214E-2,3.38942E-1,2.3077004E-1,-2.5622904E-1,2.2298694E-1,-2.2419786E-1,3.9453503E-2,-2.9272103E-1,-1.0562165E-1,-4.6555135E-1,-2.1365581E-1,-2.5677153E-1,-5.45255E-1,-3.3657062E-1,7.620825E-2,1.7415684E-1,4.385301E-2,-4.323517E-2,-1.497994E-1,7.175998E-2,-4.8863336E-2,-4.8928067E-1,-3.3726367E-1,-5.207049E-1,-7.0689815E-1,-7.538782E-1,-5.8507675E-1,-8.729995E-1,-1.3251308E0,-1.6506033E-1,9.696445E-2,-5.142385E-1,-2.912713E-1,-6.4449996E-1,-4.5879173E-1,-6.4704067E-1,-1.1276411E0,-3.5875562E-1,-1.677002E-1,-5.018968E-1,-1.8449937E-1,-7.937964E-2,5.00892E-2,-1.3072759E-1,-2.3620938E-1,1.00455955E-1,2.4200132E-1,-4.6565913E-2,1.08051315E-1,1.7861985E-1,4.0453687E-1,3.992537E-1,5.641536E-1],"split_indices":[2,8,13,13,13,23,13,2,8,8,8,2,23,23,13,1,3,10,8,17,3,13,13,3,3,2,2,8,10,10,25,2,23,2,10,2,1,10,0,2,2,2,2,2,0,8,10,6,8,25,3,25,23,4,3,19,24,18,10,23,23,23,13,0,0,0,0,0,0,0,0,0,0,0,0,0,0,0,0,0,0,0,0,0,0,0,0,0,0,0,0,0,0,0,0,0,0,0,0,0,0,0,0,0,0,0,0,0,0,0,0,0,0,0,0,0,0,0,0,0,0,0,0,0,0,0,0],"split_type":[0,0,0,0,0,0,0,0,0,0,0,0,0,0,0,0,0,0,0,0,0,0,0,0,0,0,0,0,0,0,0,0,0,0,0,0,0,0,0,0,0,0,0,0,0,0,0,0,0,0,0,0,0,0,0,0,0,0,0,0,0,0,0,0,0,0,0,0,0,0,0,0,0,0,0,0,0,0,0,0,0,0,0,0,0,0,0,0,0,0,0,0,0,0,0,0,0,0,0,0,0,0,0,0,0,0,0,0,0,0,0,0,0,0,0,0,0,0,0,0,0,0,0,0,0,0,0],"sum_hessian":[1.22241E5,8.6775E4,3.5466E4,6.1292E4,2.5483E4,2.1635E4,1.3831E4,3.9438E4,2.1854E4,1.5668E4,9.815E3,7.14E3,1.4495E4,8.192E3,5.639E3,2.731E3,3.6707E4,6.327E3,1.5527E4,1.1047E4,4.621E3,6.86E3,2.955E3,1.754E3,5.386E3,9.178E3,5.317E3,1.752E3,6.44E3,3.914E3,1.725E3,1.743E3,9.88E2,2.5157E4,1.155E4,3.51E3,2.817E3,8.43E3,7.097E3,4.084E3,6.963E3,3.345E3,1.276E3,3.493E3,3.367E3,1.408E3,1.547E3,7.6E2,9.94E2,4.148E3,1.238E3,1.884E3,7.294E3,2.263E3,3.054E3,1.119E3,6.33E2,4.482E3,1.958E3,2.075E3,1.839E3,4.56E2,1.269E3,8.59E2,8.84E2,3.06E2,6.82E2,2.2958E4,2.199E3,8.581E3,2.969E3,2.68E3,8.3E2,2.645E3,1.72E2,6.123E3,2.307E3,4.1E1,7.056E3,4.49E2,3.635E3,1.846E3,5.117E3,4.39E2,2.906E3,6.01E2,6.75E2,7.9E1,3.414E3,3.052E3,3.15E2,9.39E2,4.69E2,1.14E3,4.07E2,3.96E2,3.64E2,5.75E2,4.19E2,2.334E3,1.814E3,1.099E3,1.39E2,1.363E3,5.21E2,1.324E3,5.97E3,5.81E2,1.682E3,2.847E3,2.07E2,5.16E2,6.03E2,5.46E2,8.7E1,2.47E3,2.012E3,1E3,9.58E2,3.57E2,1.718E3,3.12E2,1.527E3,2.18E2,2.38E2,8.42E2,4.27E2],"tree_param":{"num_deleted":"0","num_feature":"26","num_nodes":"127","size_leaf_vector":"1"}},{"base_weights":[-4.2347447E-4,2.2800868E0,-5.5800767E0,4.0060763E0,-7.158181E-1,-9.47296E0,2.8385022E-1,2.190948E0,5.9917064E0,-2.3079562E0,1.8078393E0,-1.3034736E1,-7.7122545E0,-2.4662292E0,4.434762E0,2.5405483E0,-2.647069E0,1.0106345E1,5.2750745E0,-6.522662E-1,-4.4186425E0,2.9251342E0,4.3136242E-1,-1.0836564E1,-1.4485544E1,-5.445587E0,-1.1538125E1,-6.4549236E0,-1.3293259E0,2.924069E0,7.8588233E0,-2.076597E0,2.9502375E0,-7.2137823E0,4.5900634E-1,1.1554798E1,6.771136E0,5.700877E0,2.5372353E0,8.2191527E-1,-2.490984E0,-3.5105422E0,-6.831358E0,1.9360522E0,3.7648659E0,-7.453487E-1,1.562597E0,-9.315464E0,-1.2057042E1,-1.3920722E1,-2.410526E1,-1.7883588E0,-6.3871007E0,-8.770138E0,-1.24896555E1,-5.5996766E0,-1.0910261E1,-1.9611655E-1,-3.0652223E0,1.8559755E0,4.5491004E0,5.6473136E0,8.648431E0,-2.0262693E-1,2.8679842E-2,1.0030891E-1,2.2857936E-1,-4.0900275E-1,-1.9952083E-1,1.5233524E-1,-3.5475603E-1,6.365988E-1,4.2050686E-1,1.4904289E-1,3.7264162E-1,3.5044962E-1,2.3875879E-1,1.4479254E-1,-1.8787E-1,-1.3580395E-1,7.05484E-2,-3.0649734E-1,-6.137327E-2,-3.7402815E-1,-1.5135002E-1,-2.8954107E-1,-4.7388336E-1,1.1634927E-1,-3.4133587E-2,2.4615398E-1,1.5967126E-1,-3.0545658E-1,-2.7247583E-2,1.0820239E-1,-1.838169E-2,-8.3233565E-1,-4.2372727E-1,-5.315641E-1,-6.892894E-1,-7.534506E-1,-5.684684E-1,-1.2801886E0,-7.2687215E-1,-3.2720757E-1,-3.417675E-2,-4.9063116E-1,-2.8137594E-1,-3.4308252E-1,-5.2076364E-1,-6.071138E-1,-1.248137E0,-3.6552063E-1,-2.0808211E-1,-4.9633226E-1,-8.657029E-1,-6.8640776E-2,6.2980406E-2,-1.1062952E-1,-2.2287145E-1,1.5750287E-1,4.2463064E-2,2.9546282E-1,1.961724E-1,1.6972964E-1,3.8439465E-1,3.7931466E-1,5.360119E-1],"categories":[],"categories_nodes":[],"categories_segments":[],"categories_sizes":[],"default_left":[0,0,0,0,0,0,0,0,0,0,0,0,0,0,0,0,0,0,0,0,0,0,0,0,0,0,0,0,0,0,0,0,0,0,0,0,0,0,0,0,0,0,0,0,0,0,0,0,0,0,0,0,0,0,0,0,0,0,0,0,0,0,0,0,0,0,0,0,0,0,0,0,0,0,0,0,0,0,0,0,0,0,0,0,0,0,0,0,0,0,0,0,0,0,0,0,0,0,0,0,0,0,0,0,0,0,0,0,0,0,0,0,0,0,0,0,0,0,0,0,0,0,0,0,0,0,0],"id":7,"left_children":[1,3,5,7,9,11,13,15,17,19,21,23,25,27,29,31,33,35,37,39,41,43,45,47,49,51,53,55,57,59,61,63,65,67,69,71,73,75,77,79,81,83,85,87,89,91,93,95,97,99,101,103,105,107,109,111,113,115,117,119,121,123,125,-1,-1,-1,-1,-1,-1,-1,-1,-1,-1,-1,-1,-1,-1,-1,-1,-1,-1,-1,-1,-1,-1,-1,-1,-1,-1,-1,-1,-1,-1,-1,-1,-1,-1,-1,-1,-1,-1,-1,-1,-1,-1,-1,-1,-1,-1,-1,-1,-1,-1,-1,-1,-1,-1,-1,-1,-1,-1,-1,-1,-1,-1,-1,-1],"loss_changes":[1.5554758E6,4.4871294E5,8.096286E5,1.9842194E5,1.27455484E5,1.3357712E5,1.615608E5,4.865903E4,7.747631E4,6.79679E4,1.8870684E4,2.2326375E4,1.2366019E5,3.8595836E4,2.9151078E4,5.0751984E4,2.7507168E4,1.8757438E4,2.6093188E4,2.955034E4,1.8708969E4,5.618117E3,7.3210835E3,5.0988125E3,2.2723812E4,3.0844281E4,1.38681875E4,7.1329688E3,1.3033626E4,6.7867656E3,2.9651406E3,1.1454829E4,3.7707562E4,2.4123555E3,2.2599328E4,9.95075E3,3.0344414E3,2.343425E4,6.8190586E3,1.2614508E4,2.2296873E4,1.19061875E4,6.3802344E3,3.1874863E3,2.4079727E3,2.8945635E3,3.2560674E3,7.5898047E3,3.6837031E3,1.15796875E4,2.98275E3,9.642445E3,1.8486375E4,4.2016875E3,1.6798875E4,3.871289E3,1.7366875E3,6.870658E3,3.096621E3,3.0770757E3,1.2975449E3,2.074667E3,2.7133594E3,0E0,0E0,0E0,0E0,0E0,0E0,0E0,0E0,0E0,0E0,0E0,0E0,0E0,0E0,0E0,0E0,0E0,0E0,0E0,0E0,0E0,0E0,0E0,0E0,0E0,0E0,0E0,0E0,0E0,0E0,0E0,0E0,0E0,0E0,0E0,0E0,0E0,0E0,0E0,0E0,0E0,0E0,0E0,0E0,0E0,0E0,0E0,0E0,0E0,0E0,0E0,0E0,0E0,0E0,0E0,0E0,0E0,0E0,0E0,0E0,0E0,0E0,0E0,0E0],"parents":[2147483647,0,0,1,1,2,2,3,3,4,4,5,5,6,6,7,7,8,8,9,9,10,10,11,11,12,12,13,13,14,14,15,15,16,16,17,17,18,18,19,19,20,20,21,21,22,22,23,23,24,24,25,25,26,26,27,27,28,28,29,29,30,30,31,31,32,32,33,33,34,34,35,35,36,36,37,37,38,38,39,39,40,40,41,41,42,42,43,43,44,44,45,45,46,46,47,47,48,48,49,49,50,50,51,51,52,52,53,53,54,54,55,55,56,56,57,57,58,58,59,59,60,60,61,61,62,62],"right_children":[2,4,6,8,10,12,14,16,18,20,22,24,26,28,30,32,34,36,38,40,42,44,46,48,50,52,54,56,58,60,62,64,66,68,70,72,74,76,78,80,82,84,86,88,90,92,94,96,98,100,102,104,106,108,110,112,114,116,118,120,122,124,126,-1,-1,-1,-1,-1,-1,-1,-1,-1,-1,-1,-1,-1,-1,-1,-1,-1,-1,-1,-1,-1,-1,-1,-1,-1,-1,-1,-1,-1,-1,-1,-1,-1,-1,-1,-1,-1,-1,-1,-1,-1,-1,-1,-1,-1,-1,-1,-1,-1,-1,-1,-1,-1,-1,-1,-1,-1,-1,-1,-1,-1,-1,-1,-1],"split_conditions":[3.87167E1,1.015E3,2.1E0,2E0,4.1E0,4E0,5.3E0,2.62361E1,1.006E3,1.019E3,1.019E3,4.54167E1,1.1E1,5E0,8E0,-1.81333E1,5E0,5.8E1,8E1,3.55E0,1.025E3,1.12E1,7E0,2.04651E1,3.87E1,4.25E1,4.25E1,1.027E3,6.6E1,6.8E0,1.4E1,1.31E2,1.908E1,6.6415E1,1.1E1,3.35E1,7.955E0,1.011E3,2.50833E1,-1.89167E1,3.156E-1,-2.93167E1,3.893E1,2.15E2,1.6E1,-2.93167E1,1.025E3,2.2E1,7.9E1,3E0,9.16E1,5E0,5E0,1.2E1,7.72E1,2.368E1,1.034E3,1.16E1,8E1,4.6E1,3.4E1,7E0,8.5E0,-2.0262693E-1,2.8679842E-2,1.0030891E-1,2.2857936E-1,-4.0900275E-1,-1.9952083E-1,1.5233524E-1,-3.5475603E-1,6.365988E-1,4.2050686E-1,1.4904289E-1,3.7264162E-1,3.5044962E-1,2.3875879E-1,1.4479254E-1,-1.8787E-1,-1.3580395E-1,7.05484E-2,-3.0649734E-1,-6.137327E-2,-3.7402815E-1,-1.5135002E-1,-2.8954107E-1,-4.7388336E-1,1.1634927E-1,-3.4133587E-2,2.4615398E-1,1.5967126E-1,-3.0545658E-1,-2.7247583E-2,1.0820239E-1,-1.838169E-2,-8.3233565E-1,-4.2372727E-1,-5.315641E-1,-6.892894E-1,-7.534506E-1,-5.684684E-1,-1.2801886E0,-7.2687215E-1,-3.2720757E-1,-3.417675E-2,-4.9063116E-1,-2.8137594E-1,-3.4308252E-1,-5.2076364E-1,-6.071138E-1,-1.248137E0,-3.6552063E-1,-2.0808211E-1,-4.9633226E-1,-8.657029E-1,-6.8640776E-2,6.2980406E-2,-1.1062952E-1,-2.2287145E-1,1.5750287E-1,4.2463064E-2,2.9546282E-1,1.961724E-1,1.6972964E-1,3.8439465E-1,3.7931466E-1,5.360119E-1],"split_indices":[2,8,13,13,13,23,13,2,8,8,8,2,23,23,13,2,23,10,10,17,8,5,13,3,3,2,2,8,10,13,25,0,3,19,23,2,18,8,2,2,2,2,3,1,3,2,8,1,10,23,15,23,23,23,3,19,8,18,10,10,10,23,13,0,0,0,0,0,0,0,0,0,0,0,0,0,0,0,0,0,0,0,0,0,0,0,0,0,0,0,0,0,0,0,0,0,0,0,0,0,0,0,0,0,0,0,0,0,0,0,0,0,0,0,0,0,0,0,0,0,0,0,0,0,0,0,0],"split_type":[0,0,0,0,0,0,0,0,0,0,0,0,0,0,0,0,0,0,0,0,0,0,0,0,0,0,0,0,0,0,0,0,0,0,0,0,0,0,0,0,0,0,0,0,0,0,0,0,0,0,0,0,0,0,0,0,0,0,0,0,0,0,0,0,0,0,0,0,0,0,0,0,0,0,0,0,0,0,0,0,0,0,0,0,0,0,0,0,0,0,0,0,0,0,0,0,0,0,0,0,0,0,0,0,0,0,0,0,0,0,0,0,0,0,0,0,0,0,0,0,0,0,0,0,0,0,0],"sum_hessian":[1.22241E5,8.6775E4,3.5466E4,5.5056E4,3.1719E4,2.1315E4,1.4151E4,2.8764E4,2.6292E4,1.9449E4,1.227E4,7.049E3,1.4266E4,8.512E3,5.639E3,2.6826E4,1.938E3,3.898E3,2.2394E4,1.09E4,8.549E3,6.772E3,5.498E3,2.806E3,4.243E3,8.96E3,5.306E3,1.887E3,6.625E3,3.914E3,1.725E3,2.186E3,2.464E4,7.84E2,1.154E3,2.716E3,1.182E3,1.9379E4,3.015E3,6.05E3,4.85E3,6.213E3,2.336E3,3.111E3,3.661E3,2.695E3,2.803E3,1.253E3,1.553E3,4.01E3,2.33E2,1.835E3,7.125E3,1.36E3,3.946E3,1.585E3,3.02E2,4.009E3,2.616E3,2.363E3,1.551E3,4.56E2,1.269E3,1.252E3,9.34E2,1.5574E4,9.066E3,6.02E2,1.82E2,8.6E2,2.94E2,1.974E3,7.42E2,1.81E2,1.001E3,8.028E3,1.1351E4,2.853E3,1.62E2,8.63E2,5.187E3,1.249E3,3.601E3,6.73E2,5.54E3,1.679E3,6.57E2,2.707E3,4.04E2,1.207E3,2.454E3,9.6E1,2.599E3,2.137E3,6.66E2,1.27E2,1.126E3,8.55E2,6.98E2,2.762E3,1.248E3,2E2,3.3E1,3.45E2,1.49E3,1.291E3,5.834E3,6.32E2,7.28E2,3.841E3,1.05E2,7.22E2,8.63E2,2.64E2,3.8E1,2.217E3,1.792E3,1.624E3,9.92E2,1.033E3,1.33E3,4.86E2,1.065E3,2.18E2,2.38E2,8.42E2,4.27E2],"tree_param":{"num_deleted":"0","num_feature":"26","num_nodes":"127","size_leaf_vector":"1"}},{"base_weights":[-4.8239133E-4,2.1660821E0,-5.301348E0,4.1237955E0,-2.268061E-1,-8.369648E0,1.430601E0,2.352586E0,6.072123E0,-1.4946606E0,2.497433E0,-1.078754E1,-5.626096E0,-6.2193984E-1,5.652238E0,2.6456628E0,-2.8205192E0,9.601433E0,5.3409715E0,9.434316E-2,-3.496859E0,3.359171E0,8.72977E-1,-1.419006E1,-9.546843E0,-9.279952E0,-3.6628723E0,-2.4789596E0,5.702468E-1,4.007861E0,7.4667335E0,-1.6325301E0,3.0060437E0,-7.16142E0,5.479838E-1,1.1269732E1,6.9800878E0,6.100717E0,3.634944E0,1.2582736E0,-1.6557848E0,-2.5984285E0,-5.7448325E0,4.369253E0,2.6800897E0,1.3866514E0,-8.3464175E-1,-1.2588137E1,-1.7038105E1,-8.53831E0,-1.2986895E1,-8.114376E0,-1.2017966E1,-1.9420232E0,-7.1261225E0,-4.5066404E0,-1.2143639E0,1.1818937E0,-1.2830607E0,1.0553484E0,4.5235376E0,9.140449E0,6.4645734E0,-1.7809306E-1,3.9263234E-2,2.0179437E-1,8.361887E-2,-2.048475E-1,-3.95452E-1,1.4779666E-1,-3.5312796E-1,6.3039976E-1,4.0416127E-1,4.01511E-1,2.2533719E-1,2.5241503E-1,3.6479598E-1,2.1971047E-1,-6.747503E-2,8.727347E-2,-1.364653E-1,-2.5376287E-1,-2.6748274E-2,-3.4804472E-1,-1.0724633E-1,-2.4038468E-1,-4.207743E-1,5.7322413E-2,2.3891304E-1,9.769379E-2,1.9452183E-1,2.2524662E-2,1.2937854E-1,-2.3964984E-2,-1.465643E-1,-9.746054E-1,-6.084899E-1,-7.07132E-1,-9.586787E-1,-2.7422914E-1,-4.53717E-1,-6.1270255E-1,-9.6481085E-1,-3.4294903E-1,-4.8155507E-1,-5.5510896E-1,-9.242076E-1,3.9541792E-2,-1.6997273E-1,-4.2716876E-1,-2.524147E-1,-2.1097448E-1,-5.987352E-1,-1.6979648E-1,3.0835947E-2,-3.7471574E-2,9.5720924E-2,-5.0699633E-2,-2.8744408E-1,-1.847971E-2,2.1784484E-1,2.6068866E-1,1.5699098E-1,4.004534E-1,5.155653E-1,3.7396064E-1,2.0163451E-1],"categories":[],"categories_nodes":[],"categories_segments":[],"categories_sizes":[],"default_left":[0,0,0,0,0,0,0,0,0,0,0,0,0,0,0,0,0,0,0,0,0,0,0,0,0,0,0,0,0,0,0,0,0,0,0,0,0,0,0,0,0,0,0,0,0,0,0,0,0,0,0,0,0,0,0,0,0,0,0,0,0,0,0,0,0,0,0,0,0,0,0,0,0,0,0,0,0,0,0,0,0,0,0,0,0,0,0,0,0,0,0,0,0,0,0,0,0,0,0,0,0,0,0,0,0,0,0,0,0,0,0,0,0,0,0,0,0,0,0,0,0,0,0,0,0,0,0],"id":8,"left_children":[1,3,5,7,9,11,13,15,17,19,21,23,25,27,29,31,33,35,37,39,41,43,45,47,49,51,53,55,57,59,61,63,65,67,69,71,73,75,77,79,81,83,85,87,89,91,93,95,97,99,101,103,105,107,109,111,113,115,117,119,121,123,125,-1,-1,-1,-1,-1,-1,-1,-1,-1,-1,-1,-1,-1,-1,-1,-1,-1,-1,-1,-1,-1,-1,-1,-1,-1,-1,-1,-1,-1,-1,-1,-1,-1,-1,-1,-1,-1,-1,-1,-1,-1,-1,-1,-1,-1,-1,-1,-1,-1,-1,-1,-1,-1,-1,-1,-1,-1,-1,-1,-1,-1,-1,-1,-1],"loss_changes":[1.4039202E6,4.0651084E5,7.326057E5,1.6469012E5,1.348766E5,1.6155412E5,9.622926E4,3.7913406E4,5.8594812E4,8.478097E4,1.735807E4,5.45285E4,8.184966E4,1.6545994E4,1.0809898E4,3.6486484E4,1.9612477E4,1.6972438E4,2.4383E4,3.0268234E4,2.379875E4,5.546367E3,3.7729458E3,1.55621875E4,3.282075E4,1.2632844E4,4.4249086E4,7.4871094E3,5.1615254E3,2.9002324E3,2.8359922E3,8.5812295E3,2.9967797E4,1.3101602E3,1.3875183E4,1.00515625E4,3.9091719E3,1.6347969E4,2.197125E4,1.7341705E4,2.2743832E4,1.6654953E4,8.383883E3,4.2864297E3,4.2536445E3,3.7156064E3,7.398957E2,6.1659375E3,7.4083125E3,1.1969875E4,9.704594E3,5.2673125E3,6.8356094E3,1.9770092E4,7.2158125E3,2.3555586E3,7.196418E3,4.8441016E3,1.3519896E3,1.3423976E3,1.5346992E3,7.705156E2,2.642121E3,0E0,0E0,0E0,0E0,0E0,0E0,0E0,0E0,0E0,0E0,0E0,0E0,0E0,0E0,0E0,0E0,0E0,0E0,0E0,0E0,0E0,0E0,0E0,0E0,0E0,0E0,0E0,0E0,0E0,0E0,0E0,0E0,0E0,0E0,0E0,0E0,0E0,0E0,0E0,0E0,0E0,0E0,0E0,0E0,0E0,0E0,0E0,0E0,0E0,0E0,0E0,0E0,0E0,0E0,0E0,0E0,0E0,0E0,0E0,0E0,0E0,0E0,0E0,0E0],"parents":[2147483647,0,0,1,1,2,2,3,3,4,4,5,5,6,6,7,7,8,8,9,9,10,10,11,11,12,12,13,13,14,14,15,15,16,16,17,17,18,18,19,19,20,20,21,21,22,22,23,23,24,24,25,25,26,26,27,27,28,28,29,29,30,30,31,31,32,32,33,33,34,34,35,35,36,36,37,37,38,38,39,39,40,40,41,41,42,42,43,43,44,44,45,45,46,46,47,47,48,48,49,49,50,50,51,51,52,52,53,53,54,54,55,55,56,56,57,57,58,58,59,59,60,60,61,61,62,62],"right_children":[2,4,6,8,10,12,14,16,18,20,22,24,26,28,30,32,34,36,38,40,42,44,46,48,50,52,54,56,58,60,62,64,66,68,70,72,74,76,78,80,82,84,86,88,90,92,94,96,98,100,102,104,106,108,110,112,114,116,118,120,122,124,126,-1,-1,-1,-1,-1,-1,-1,-1,-1,-1,-1,-1,-1,-1,-1,-1,-1,-1,-1,-1,-1,-1,-1,-1,-1,-1,-1,-1,-1,-1,-1,-1,-1,-1,-1,-1,-1,-1,-1,-1,-1,-1,-1,-1,-1,-1,-1,-1,-1,-1,-1,-1,-1,-1,-1,-1,-1,-1,-1,-1,-1,-1,-1,-1],"split_conditions":[3.87167E1,1.014E3,3.1E0,2E0,5.1E0,7E-1,6.2E0,3.005E1,1.006E3,1.018E3,1.019E3,3E0,5E0,4.2E0,8E0,-1.81333E1,5E0,5.2E1,5.1E1,3.35E0,1.024E3,2.61E1,1.025E3,2.047E1,1.2E1,1.025E3,1E1,6E0,6.3E1,6E0,2.6E1,1.31E2,8.5E1,2.5E1,1.1E1,3.35E1,7.3E1,7.4E0,2.624E1,2.15E2,3.156E-1,-2.93167E1,4.659E1,-8.8383E0,4.43939E1,8E0,7E1,6E0,4.4804E1,4.2E1,7.14278E1,2.33167E1,7.14278E1,4.54167E1,1.4E0,1.03E3,2.025E3,6E0,5.989E1,1.4E1,4.69167E1,9E0,2.025E3,-1.7809306E-1,3.9263234E-2,2.0179437E-1,8.361887E-2,-2.048475E-1,-3.95452E-1,1.4779666E-1,-3.5312796E-1,6.3039976E-1,4.0416127E-1,4.01511E-1,2.2533719E-1,2.5241503E-1,3.6479598E-1,2.1971047E-1,-6.747503E-2,8.727347E-2,-1.364653E-1,-2.5376287E-1,-2.6748274E-2,-3.4804472E-1,-1.0724633E-1,-2.4038468E-1,-4.207743E-1,5.7322413E-2,2.3891304E-1,9.769379E-2,1.9452183E-1,2.2524662E-2,1.2937854E-1,-2.3964984E-2,-1.465643E-1,-9.746054E-1,-6.084899E-1,-7.07132E-1,-9.586787E-1,-2.7422914E-1,-4.53717E-1,-6.1270255E-1,-9.6481085E-1,-3.4294903E-1,-4.8155507E-1,-5.5510896E-1,-9.242076E-1,3.9541792E-2,-1.6997273E-1,-4.2716876E-1,-2.524147E-1,-2.1097448E-1,-5.987352E-1,-1.6979648E-1,3.0835947E-2,-3.7471574E-2,9.5720924E-2,-5.0699633E-2,-2.8744408E-1,-1.847971E-2,2.1784484E-1,2.6068866E-1,1.5699098E-1,4.004534E-1,5.155653E-1,3.7396064E-1,2.0163451E-1],"split_indices":[2,8,13,13,13,13,13,2,8,8,8,23,23,13,13,2,23,10,11,17,8,3,8,3,23,8,23,23,10,23,10,0,10,11,23,2,10,13,2,1,2,2,3,2,3,13,10,25,2,2,3,3,3,2,13,8,22,23,2,25,2,13,22,0,0,0,0,0,0,0,0,0,0,0,0,0,0,0,0,0,0,0,0,0,0,0,0,0,0,0,0,0,0,0,0,0,0,0,0,0,0,0,0,0,0,0,0,0,0,0,0,0,0,0,0,0,0,0,0,0,0,0,0,0,0,0,0],"split_type":[0,0,0,0,0,0,0,0,0,0,0,0,0,0,0,0,0,0,0,0,0,0,0,0,0,0,0,0,0,0,0,0,0,0,0,0,0,0,0,0,0,0,0,0,0,0,0,0,0,0,0,0,0,0,0,0,0,0,0,0,0,0,0,0,0,0,0,0,0,0,0,0,0,0,0,0,0,0,0,0,0,0,0,0,0,0,0,0,0,0,0,0,0,0,0,0,0,0,0,0,0,0,0,0,0,0,0,0,0,0,0,0,0,0,0,0,0,0,0,0,0,0,0,0,0,0,0],"sum_hessian":[1.22241E5,8.6775E4,3.5466E4,4.7727E4,3.9048E4,2.4362E4,1.1104E4,2.5001E4,2.2726E4,2.6647E4,1.2401E4,1.2948E4,1.1414E4,7.472E3,3.632E3,2.3661E4,1.34E3,3.898E3,1.8828E4,1.4857E4,1.179E4,8.102E3,4.299E3,3.457E3,9.491E3,3.988E3,7.426E3,2.921E3,4.551E3,1.907E3,1.725E3,1.838E3,2.1823E4,5.85E2,7.55E2,2.38E3,1.518E3,1.3025E4,5.803E3,8.923E3,5.934E3,8.425E3,3.365E3,3.255E3,4.847E3,3.305E3,9.94E2,2.216E3,1.241E3,7.342E3,2.149E3,2.8E3,1.188E3,4.962E3,2.464E3,1.121E3,1.8E3,3.422E3,1.129E3,2.84E2,1.623E3,6.43E2,1.082E3,1.022E3,8.16E2,1.2313E4,9.51E3,1.16E2,4.69E2,5.74E2,1.81E2,1.674E3,7.06E2,1.064E3,4.54E2,6.929E3,6.096E3,5.036E3,7.67E2,7.952E3,9.71E2,1.464E3,4.47E3,7.92E2,7.633E3,2.493E3,8.72E2,3.67E2,2.888E3,3.031E3,1.816E3,1.858E3,1.447E3,8.51E2,1.43E2,1.24E2,2.092E3,5.3E2,7.11E2,1.098E3,6.244E3,1.928E3,2.21E2,1.535E3,1.265E3,1.043E3,1.45E2,1.726E3,3.236E3,1.463E3,1.001E3,1.081E3,4E1,8.21E2,9.79E2,9.41E2,2.481E3,1.066E3,6.3E1,1.99E2,8.5E1,1.081E3,5.42E2,3.31E2,3.12E2,7.62E2,3.2E2],"tree_param":{"num_deleted":"0","num_feature":"26","num_nodes":"127","size_leaf_vector":"1"}},{"base_weights":[-5.144147E-4,2.0577888E0,-5.0365005E0,3.2071748E0,-1.6220272E0,-8.557263E0,2.6689312E-1,1.961392E0,5.4841623E0,-3.218669E0,9.03348E-1,-1.1803312E1,-6.9526377E0,-2.2162137E0,4.0148406E0,3.6178832E0,1.0283248E0,7.7957716E0,4.3100433E0,-2.4425013E0,-5.9543686E0,-9.147252E-2,1.8846076E0,-8.865281E0,-1.2752674E1,-4.1175895E0,-9.571137E0,-5.8025393E0,-1.1939985E0,2.6561956E0,7.0942607E0,4.6589646E0,1.4939138E0,-2.9031963E0,1.3651601E0,1.03877535E1,6.5088844E0,5.1143827E0,3.6676388E0,-1.7159246E0,-5.2162194E0,-4.4624314E0,-8.663031E0,-5.9260745E0,9.6422076E-2,2.5448823E0,3.574282E-1,-7.0464406E0,-1.027039E1,-1.1752276E1,-1.610282E1,-6.928695E0,-1.6553992E0,-8.345426E0,-1.1649002E1,-4.304019E0,-7.9537644E0,-3.307502E-1,-3.1399603E0,3.787429E0,1.3784254E0,1.5998946E0,7.3743625E0,2.525626E-1,1.7940985E-2,9.848448E-2,-2.338469E-1,1.226133E-1,-1.92189E-1,8.9278035E-2,-8.449247E-2,5.907622E-1,3.4314677E-1,3.4277117E-1,5.299554E-2,3.6780083E-1,2.3845463E-1,2.231102E-1,1.4926888E-1,-4.5500197E-2,-2.0043512E-1,-2.1276E-1,-3.8102683E-1,-5.3382814E-1,-1.8515785E-1,4.7445195E-3,-4.5787272E-1,-1.6895345E-1,-3.6423445E-1,3.1005407E-2,-9.460699E-2,1.3818029E-1,6.1689233E-3,4.2867802E-2,-9.1926344E-2,-4.2276406E-1,-2.7629822E-1,-4.3891034E-1,-6.1714435E-1,-6.536653E-1,-5.001955E-1,-8.794179E-1,-5.837863E-1,-5.050519E-1,-3.115581E-1,7.249578E-2,-1.5437888E-1,-3.1381664E-1,-4.8098412E-1,-5.491862E-1,-8.961072E-1,3.7031878E-2,-2.4368332E-1,-3.5421112E-1,-6.2058765E-1,3.428718E-2,-8.802437E-2,-1.4870794E-1,-4.585208E-1,-4.8227306E-2,1.9953929E-1,6.698263E-3,1.1319466E-1,2.8928718E-2,3.8823563E-1,4.184897E-1,3.0279475E-1],"categories":[],"categories_nodes":[],"categories_segments":[],"categories_sizes":[],"default_left":[0,0,0,0,0,0,0,0,0,0,0,0,0,0,0,0,0,0,0,0,0,0,0,0,0,0,0,0,0,0,0,0,0,0,0,0,0,0,0,0,0,0,0,0,0,0,0,0,0,0,0,0,0,0,0,0,0,0,0,0,0,0,0,0,0,0,0,0,0,0,0,0,0,0,0,0,0,0,0,0,0,0,0,0,0,0,0,0,0,0,0,0,0,0,0,0,0,0,0,0,0,0,0,0,0,0,0,0,0,0,0,0,0,0,0,0,0,0,0,0,0,0,0,0,0,0,0],"id":9,"left_children":[1,3,5,7,9,11,13,15,17,19,21,23,25,27,29,31,33,35,37,39,41,43,45,47,49,51,53,55,57,59,61,63,65,67,69,71,73,75,77,79,81,83,85,87,89,91,93,95,97,99,101,103,105,107,109,111,113,115,117,119,121,123,125,-1,-1,-1,-1,-1,-1,-1,-1,-1,-1,-1,-1,-1,-1,-1,-1,-1,-1,-1,-1,-1,-1,-1,-1,-1,-1,-1,-1,-1,-1,-1,-1,-1,-1,-1,-1,-1,-1,-1,-1,-1,-1,-1,-1,-1,-1,-1,-1,-1,-1,-1,-1,-1,-1,-1,-1,-1,-1,-1,-1,-1,-1,-1,-1],"loss_changes":[1.2671204E6,3.6702688E5,6.622419E5,1.8755575E5,8.328228E4,1.10946375E5,1.3171523E5,6.605755E4,6.3430375E4,2.6854484E4,7.8105654E3,1.955125E4,1.0587269E5,3.1201703E4,2.3578008E4,3.4045906E4,3.621228E4,2.6200125E4,7.9949375E3,1.9860074E4,1.1260406E4,4.3572285E3,4.0607578E3,4.3361562E3,1.766075E4,4.7414484E4,1.879025E4,6.0520273E3,1.1129636E4,5.653742E3,2.6444844E3,1.7430547E4,1.488563E4,1.0879832E4,3.2348805E4,1.3056531E4,9.934547E3,5.2932188E3,4.6628438E3,1.4435037E4,4.695051E3,8.476871E3,4.2963594E3,4.0447412E2,4.011536E3,1.4890039E3,1.337622E3,1.5705703E3,2.8945156E3,9.35025E3,7.8312812E3,7.0158594E3,1.6255149E4,1.22470625E4,1.1275781E4,3.2077559E3,2.912414E3,6.673395E3,2.0084395E3,2.0099785E3,2.0272468E3,5.306891E2,2.1043516E3,0E0,0E0,0E0,0E0,0E0,0E0,0E0,0E0,0E0,0E0,0E0,0E0,0E0,0E0,0E0,0E0,0E0,0E0,0E0,0E0,0E0,0E0,0E0,0E0,0E0,0E0,0E0,0E0,0E0,0E0,0E0,0E0,0E0,0E0,0E0,0E0,0E0,0E0,0E0,0E0,0E0,0E0,0E0,0E0,0E0,0E0,0E0,0E0,0E0,0E0,0E0,0E0,0E0,0E0,0E0,0E0,0E0,0E0,0E0,0E0,0E0,0E0,0E0,0E0],"parents":[2147483647,0,0,1,1,2,2,3,3,4,4,5,5,6,6,7,7,8,8,9,9,10,10,11,11,12,12,13,13,14,14,15,15,16,16,17,17,18,18,19,19,20,20,21,21,22,22,23,23,24,24,25,25,26,26,27,27,28,28,29,29,30,30,31,31,32,32,33,33,34,34,35,35,36,36,37,37,38,38,39,39,40,40,41,41,42,42,43,43,44,44,45,45,46,46,47,47,48,48,49,49,50,50,51,51,52,52,53,53,54,54,55,55,56,56,57,57,58,58,59,59,60,60,61,61,62,62],"right_children":[2,4,6,8,10,12,14,16,18,20,22,24,26,28,30,32,34,36,38,40,42,44,46,48,50,52,54,56,58,60,62,64,66,68,70,72,74,76,78,80,82,84,86,88,90,92,94,96,98,100,102,104,106,108,110,112,114,116,118,120,122,124,126,-1,-1,-1,-1,-1,-1,-1,-1,-1,-1,-1,-1,-1,-1,-1,-1,-1,-1,-1,-1,-1,-1,-1,-1,-1,-1,-1,-1,-1,-1,-1,-1,-1,-1,-1,-1,-1,-1,-1,-1,-1,-1,-1,-1,-1,-1,-1,-1,-1,-1,-1,-1,-1,-1,-1,-1,-1,-1,-1,-1,-1,-1,-1,-1],"split_conditions":[3.87167E1,1.017E3,2.1E0,5.1E0,4.1E0,4E0,5.3E0,1.011E3,1.01E3,6.7895E2,7E0,4.25E1,1E1,5E0,8E0,8.5E1,-1.89167E1,2.9E1,1.013E3,1.024E3,1.97E2,-2.93167E1,1.023E3,2.04651E1,2.47281E1,6E0,1.2E1,1.021E3,7.1E1,4.6E1,6E0,3.005E1,2.624E1,-1.717333E2,2.624E1,3.45167E1,2.36E2,2.2E1,2.61E1,3.178E1,4.659E1,7E0,-8.23642E1,3.5E1,1.024E3,1.95E2,6.7E1,1.17E2,1.023E3,1E1,3E0,5.18E0,4.54167E1,4.54167E1,7.14278E1,2.9E1,1.031E3,4.887E1,6.3365E1,5E0,7.7E1,1.88E2,3.2E1,2.525626E-1,1.7940985E-2,9.848448E-2,-2.338469E-1,1.226133E-1,-1.92189E-1,8.9278035E-2,-8.449247E-2,5.907622E-1,3.4314677E-1,3.4277117E-1,5.299554E-2,3.6780083E-1,2.3845463E-1,2.231102E-1,1.4926888E-1,-4.5500197E-2,-2.0043512E-1,-2.1276E-1,-3.8102683E-1,-5.3382814E-1,-1.8515785E-1,4.7445195E-3,-4.5787272E-1,-1.6895345E-1,-3.6423445E-1,3.1005407E-2,-9.460699E-2,1.3818029E-1,6.1689233E-3,4.2867802E-2,-9.1926344E-2,-4.2276406E-1,-2.7629822E-1,-4.3891034E-1,-6.1714435E-1,-6.536653E-1,-5.001955E-1,-8.794179E-1,-5.837863E-1,-5.050519E-1,-3.115581E-1,7.249578E-2,-1.5437888E-1,-3.1381664E-1,-4.8098412E-1,-5.491862E-1,-8.961072E-1,3.7031878E-2,-2.4368332E-1,-3.5421112E-1,-6.2058765E-1,3.428718E-2,-8.802437E-2,-1.4870794E-1,-4.585208E-1,-4.8227306E-2,1.9953929E-1,6.698263E-3,1.1319466E-1,2.8928718E-2,3.8823563E-1,4.184897E-1,3.0279475E-1],"split_indices":[2,8,13,13,13,23,13,8,8,14,13,2,23,23,13,10,2,10,8,8,1,2,8,3,3,23,23,8,10,10,23,2,2,3,2,2,1,10,3,2,3,0,3,10,8,0,10,6,8,25,23,18,2,2,3,10,8,2,2,23,15,0,10,0,0,0,0,0,0,0,0,0,0,0,0,0,0,0,0,0,0,0,0,0,0,0,0,0,0,0,0,0,0,0,0,0,0,0,0,0,0,0,0,0,0,0,0,0,0,0,0,0,0,0,0,0,0,0,0,0,0,0,0,0,0,0,0],"split_type":[0,0,0,0,0,0,0,0,0,0,0,0,0,0,0,0,0,0,0,0,0,0,0,0,0,0,0,0,0,0,0,0,0,0,0,0,0,0,0,0,0,0,0,0,0,0,0,0,0,0,0,0,0,0,0,0,0,0,0,0,0,0,0,0,0,0,0,0,0,0,0,0,0,0,0,0,0,0,0,0,0,0,0,0,0,0,0,0,0,0,0,0,0,0,0,0,0,0,0,0,0,0,0,0,0,0,0,0,0,0,0,0,0,0,0,0,0,0,0,0,0,0,0,0,0,0,0],"sum_hessian":[1.22241E5,8.6775E4,3.5466E4,6.6122E4,2.0653E4,2.1315E4,1.4151E4,4.274E4,2.3382E4,1.2653E4,8E3,7.049E3,1.4266E4,8.512E3,5.639E3,1.5399E4,2.7341E4,7.874E3,1.5508E4,9.858E3,2.795E3,3.973E3,4.027E3,1.724E3,5.325E3,6.851E3,7.415E3,1.887E3,6.625E3,3.914E3,1.725E3,1.0333E4,5.066E3,2.157E3,2.5184E4,2.61E3,5.264E3,6.883E3,8.625E3,7.813E3,2.045E3,1.804E3,9.91E2,1.23E2,3.85E3,2.811E3,1.216E3,7.54E2,9.7E2,4.104E3,1.221E3,3.198E3,3.653E3,4.667E3,2.748E3,1.114E3,7.73E2,4.59E3,2.035E3,2.075E3,1.839E3,8.4E1,1.641E3,9.469E3,8.64E2,4.704E3,3.62E2,3.22E2,1.835E3,2.2138E4,3.046E3,1.856E3,7.54E2,4.949E3,3.15E2,9.16E2,5.967E3,3.982E3,4.643E3,5.782E3,2.031E3,1.463E3,5.82E2,1.95E2,1.609E3,5.3E1,9.38E2,4.4E1,7.9E1,3.048E3,8.02E2,2.578E3,2.33E2,9.91E2,2.25E2,3.89E2,3.65E2,5.67E2,4.03E2,2.334E3,1.77E3,9.12E2,3.09E2,5.74E2,2.624E3,1.153E3,2.5E3,1.781E3,2.886E3,2.487E3,2.61E2,1.13E2,1.001E3,6.49E2,1.24E2,2.683E3,1.907E3,1.982E3,5.3E1,8.5E1,1.99E3,7.65E2,1.074E3,7.3E1,1.1E1,9.32E2,7.09E2],"tree_param":{"num_deleted":"0","num_feature":"26","num_nodes":"127","size_leaf_vector":"1"}},{"base_weights":[-5.5478344E-4,1.9548978E0,-4.784899E0,3.7294502E0,-2.1411538E-1,-7.558188E0,1.2997841E0,2.115517E0,5.504776E0,-1.3617493E0,2.2518063E0,-9.765616E0,-5.053453E0,-4.263289E-1,5.4232016E0,2.4136515E0,-2.146824E0,8.742573E0,4.8340197E0,-1.339792E-1,-3.4899626E0,2.9264505E0,5.4187435E-1,-1.28593445E1,-8.637521E0,-8.369215E0,-3.271895E0,-2.2460623E0,6.571445E-1,6.8871236E0,4.079315E0,-1.9164827E-1,2.9554615E0,-6.575444E0,8.273847E-1,9.716525E0,4.8973384E0,5.5458617E0,3.2355902E0,9.867362E-1,-1.7571545E0,-4.5894704E0,-1.930484E0,3.8916507E0,2.3285968E0,-2.4331482E-1,1.5235168E0,-1.1392328E1,-1.546765E1,-7.146092E0,-1.0618361E1,-7.298179E0,-1.0885282E1,-1.7195442E0,-6.3960514E0,-4.10515E0,-1.086627E0,-1.0606431E0,1.2712048E0,6.053893E0,8.761432E0,-8.8796385E-2,4.4798956E0,5.5414386E-2,-1.436743E-1,9.998932E-2,2.1622132E-1,-3.7030587E-1,-1.6390347E-1,1.5157603E-1,-3.3953318E-1,5.195398E-1,3.1333902E-1,8.542902E-2,2.7245805E-1,3.5130334E-1,2.4172388E-1,1.970551E-1,-6.9789484E-2,7.313602E-2,-1.2438895E-1,-2.4873753E-1,-3.544989E-2,-1.529092E-1,-3.1777933E-1,-3.6037573E-1,-6.801825E-2,4.945707E-2,2.1485336E-1,-1.2467008E-1,1.2443253E-1,-1.8366401E-4,-1.2321972E-1,1.6641763E-1,3.469463E-2,-8.938432E-1,-5.499805E-1,-6.423573E-1,-8.700132E-1,-4.631229E-1,-2.8114176E-1,-4.8255563E-1,-6.1530006E-1,-2.981349E-1,-4.2954656E-1,-5.0196093E-1,-8.430328E-1,-1.9545162E-1,-3.260343E-3,-2.6674637E-1,-4.4053698E-1,-2.3842351E-1,-6.7415915E-2,-1.5624157E-1,3.1203875E-2,-1.0311755E-1,5.3937007E-2,1.3957484E-1,6.6563445E-3,2.4059446E-1,3.3169654E-1,2.7481332E-1,4.8194632E-1,1.9060652E-1,-3.395866E-2,1.8780737E-1,2.8102052E-1],"categories":[],"categories_nodes":[],"categories_segments":[],"categories_sizes":[],"default_left":[0,0,0,0,0,0,0,0,0,0,0,0,0,0,0,0,0,0,0,0,0,0,0,0,0,0,0,0,0,0,0,0,0,0,0,0,0,0,0,0,0,0,0,0,0,0,0,0,0,0,0,0,0,0,0,0,0,0,0,0,0,0,0,0,0,0,0,0,0,0,0,0,0,0,0,0,0,0,0,0,0,0,0,0,0,0,0,0,0,0,0,0,0,0,0,0,0,0,0,0,0,0,0,0,0,0,0,0,0,0,0,0,0,0,0,0,0,0,0,0,0,0,0,0,0,0,0],"id":10,"left_children":[1,3,5,7,9,11,13,15,17,19,21,23,25,27,29,31,33,35,37,39,41,43,45,47,49,51,53,55,57,59,61,63,65,67,69,71,73,75,77,79,81,83,85,87,89,91,93,95,97,99,101,103,105,107,109,111,113,115,117,119,121,123,125,-1,-1,-1,-1,-1,-1,-1,-1,-1,-1,-1,-1,-1,-1,-1,-1,-1,-1,-1,-1,-1,-1,-1,-1,-1,-1,-1,-1,-1,-1,-1,-1,-1,-1,-1,-1,-1,-1,-1,-1,-1,-1,-1,-1,-1,-1,-1,-1,-1,-1,-1,-1,-1,-1,-1,-1,-1,-1,-1,-1,-1,-1,-1,-1],"loss_changes":[1.1436516E6,3.3400397E5,5.985006E5,1.3674144E5,1.10510766E5,1.3465425E5,7.904197E4,3.1776508E4,4.9315562E4,6.962959E4,1.4305305E4,4.508125E4,6.740356E4,1.5437387E4,6.4188984E3,3.2986312E4,2.1541074E4,1.4554469E4,2.140625E4,3.0744822E4,1.670736E4,5.122633E3,2.705791E3,1.30555625E4,2.7966125E4,1.0670094E4,3.600836E4,6.2938887E3,5.1784307E3,2.3941875E3,2.8571895E3,1.4031724E4,2.530014E4,1.7752715E3,1.6459182E4,7.1689375E3,1.3807949E3,1.3682344E4,1.897004E4,1.6538469E4,2.3277146E4,1.5441797E4,1.2123618E4,3.9966172E3,4.2463516E3,1.0384359E3,2.3335334E3,5.4491875E3,6.0664688E3,1.7414281E4,6.533125E3,4.7845625E3,5.8417812E3,1.7976488E4,6.2690234E3,2.0453281E3,6.2816143E3,2.7731719E3,6.2560703E3,7.518828E2,1.3223047E3,3.503446E2,1.2674121E3,0E0,0E0,0E0,0E0,0E0,0E0,0E0,0E0,0E0,0E0,0E0,0E0,0E0,0E0,0E0,0E0,0E0,0E0,0E0,0E0,0E0,0E0,0E0,0E0,0E0,0E0,0E0,0E0,0E0,0E0,0E0,0E0,0E0,0E0,0E0,0E0,0E0,0E0,0E0,0E0,0E0,0E0,0E0,0E0,0E0,0E0,0E0,0E0,0E0,0E0,0E0,0E0,0E0,0E0,0E0,0E0,0E0,0E0,0E0,0E0,0E0,0E0,0E0,0E0],"parents":[2147483647,0,0,1,1,2,2,3,3,4,4,5,5,6,6,7,7,8,8,9,9,10,10,11,11,12,12,13,13,14,14,15,15,16,16,17,17,18,18,19,19,20,20,21,21,22,22,23,23,24,24,25,25,26,26,27,27,28,28,29,29,30,30,31,31,32,32,33,33,34,34,35,35,36,36,37,37,38,38,39,39,40,40,41,41,42,42,43,43,44,44,45,45,46,46,47,47,48,48,49,49,50,50,51,51,52,52,53,53,54,54,55,55,56,56,57,57,58,58,59,59,60,60,61,61,62,62],"right_children":[2,4,6,8,10,12,14,16,18,20,22,24,26,28,30,32,34,36,38,40,42,44,46,48,50,52,54,56,58,60,62,64,66,68,70,72,74,76,78,80,82,84,86,88,90,92,94,96,98,100,102,104,106,108,110,112,114,116,118,120,122,124,126,-1,-1,-1,-1,-1,-1,-1,-1,-1,-1,-1,-1,-1,-1,-1,-1,-1,-1,-1,-1,-1,-1,-1,-1,-1,-1,-1,-1,-1,-1,-1,-1,-1,-1,-1,-1,-1,-1,-1,-1,-1,-1,-1,-1,-1,-1,-1,-1,-1,-1,-1,-1,-1,-1,-1,-1,-1,-1,-1,-1,-1,-1,-1,-1],"split_conditions":[3.87167E1,1.014E3,3.1E0,2E0,5.1E0,7E-1,6.8E0,2.62361E1,1.006E3,1.019E3,1.02E3,3E0,5E0,4.2E0,3.4E1,-9.4647E0,5E0,6.5E1,5.1E1,3.55E0,2.1E0,2.61E1,8E0,2.047E1,1.1E1,1.025E3,1E1,6E0,6E0,9E0,6E0,2.8E0,1.908E1,6.795E1,1.1E1,3.378E1,6.15E0,1.01E3,2.624E1,2.15E2,3.156E-1,1.065E1,-5.517E1,-8.8383E0,2E1,2.03E2,4.3E1,6E0,4.4804E1,5E0,2.1E1,6.9E1,7.14278E1,8.6E0,4.69167E1,1.5E1,2.025E3,1.5E1,4.54167E1,7.1E0,7.87E1,2.025E3,8E0,5.5414386E-2,-1.436743E-1,9.998932E-2,2.1622132E-1,-3.7030587E-1,-1.6390347E-1,1.5157603E-1,-3.3953318E-1,5.195398E-1,3.1333902E-1,8.542902E-2,2.7245805E-1,3.5130334E-1,2.4172388E-1,1.970551E-1,-6.9789484E-2,7.313602E-2,-1.2438895E-1,-2.4873753E-1,-3.544989E-2,-1.529092E-1,-3.1777933E-1,-3.6037573E-1,-6.801825E-2,4.945707E-2,2.1485336E-1,-1.2467008E-1,1.2443253E-1,-1.8366401E-4,-1.2321972E-1,1.6641763E-1,3.469463E-2,-8.938432E-1,-5.499805E-1,-6.423573E-1,-8.700132E-1,-4.631229E-1,-2.8114176E-1,-4.8255563E-1,-6.1530006E-1,-2.981349E-1,-4.2954656E-1,-5.0196093E-1,-8.430328E-1,-1.9545162E-1,-3.260343E-3,-2.6674637E-1,-4.4053698E-1,-2.3842351E-1,-6.7415915E-2,-1.5624157E-1,3.1203875E-2,-1.0311755E-1,5.3937007E-2,1.3957484E-1,6.6563445E-3,2.4059446E-1,3.3169654E-1,2.7481332E-1,4.8194632E-1,1.9060652E-1,-3.395866E-2,1.8780737E-1,2.8102052E-1],"split_indices":[2,8,13,13,13,13,13,2,8,8,8,23,23,13,10,2,23,10,11,17,13,3,13,3,23,8,23,23,23,13,23,16,3,19,23,2,18,8,2,1,2,16,3,2,0,0,10,25,2,23,24,10,3,18,2,25,22,25,2,13,15,22,13,0,0,0,0,0,0,0,0,0,0,0,0,0,0,0,0,0,0,0,0,0,0,0,0,0,0,0,0,0,0,0,0,0,0,0,0,0,0,0,0,0,0,0,0,0,0,0,0,0,0,0,0,0,0,0,0,0,0,0,0,0,0,0,0],"split_type":[0,0,0,0,0,0,0,0,0,0,0,0,0,0,0,0,0,0,0,0,0,0,0,0,0,0,0,0,0,0,0,0,0,0,0,0,0,0,0,0,0,0,0,0,0,0,0,0,0,0,0,0,0,0,0,0,0,0,0,0,0,0,0,0,0,0,0,0,0,0,0,0,0,0,0,0,0,0,0,0,0,0,0,0,0,0,0,0,0,0,0,0,0,0,0,0,0,0,0,0,0,0,0,0,0,0,0,0,0,0,0,0,0,0,0,0,0,0,0,0,0,0,0,0,0,0,0],"sum_hessian":[1.22241E5,8.6775E4,3.5466E4,4.7727E4,3.9048E4,2.4362E4,1.1104E4,2.5001E4,2.2726E4,2.6647E4,1.2401E4,1.2948E4,1.1414E4,7.828E3,3.276E3,2.3367E4,1.634E3,3.898E3,1.8828E4,1.6899E4,9.748E3,8.892E3,3.509E3,3.457E3,9.491E3,3.988E3,7.426E3,2.921E3,4.907E3,1.566E3,1.71E3,4.023E3,1.9344E4,6.56E2,9.78E2,3.109E3,7.89E2,1.3025E4,5.803E3,9.997E3,6.902E3,5.716E3,4.032E3,3.399E3,5.493E3,1.95E3,1.559E3,2.216E3,1.241E3,5.417E3,4.074E3,2.8E3,1.188E3,4.962E3,2.464E3,1.121E3,1.8E3,1.292E3,3.615E3,1.087E3,4.79E2,1.5E2,1.56E3,2.71E3,1.313E3,1.1393E4,7.951E3,5.23E2,1.33E2,7.59E2,2.19E2,2.599E3,5.1E2,1.17E2,6.72E2,4.225E3,8.8E3,5.036E3,7.67E2,8.793E3,1.204E3,1.695E3,5.207E3,3.063E3,2.653E3,3.92E2,3.64E3,4.17E2,2.982E3,1.76E2,5.317E3,1.761E3,1.89E2,4.9E2,1.069E3,1.24E2,2.092E3,5.3E2,7.11E2,2.265E3,3.152E3,2.594E3,1.48E3,1.38E3,1.42E3,1.043E3,1.45E2,2.135E3,2.827E3,1.714E3,7.5E2,9.03E2,2.18E2,8.21E2,9.79E2,8.8E2,4.12E2,1.547E3,2.068E3,3.49E2,7.38E2,1.03E2,3.76E2,1.9E1,1.31E2,9.57E2,6.03E2],"tree_param":{"num_deleted":"0","num_feature":"26","num_nodes":"127","size_leaf_vector":"1"}},{"base_weights":[-5.73017E-4,1.5133116E0,-5.6129465E0,2.770817E0,-2.066866E0,-8.49964E0,-6.6792053E-1,1.742641E0,5.426007E0,-3.950578E0,3.2141617E-1,-1.2476549E1,-7.3125076E0,-2.410819E0,2.8833363E0,2.2902355E0,-8.808855E-1,7.385845E0,4.254548E0,-2.3900476E0,-5.883565E0,-9.8916703E-1,1.2883618E0,-1.1357037E1,-1.5964884E1,-5.940953E0,-1.0328283E1,-6.0586176E0,-1.5825485E0,1.9287866E0,6.299153E0,7.5669587E-1,3.4720867E0,-4.7622657E0,1.1276771E0,9.561276E0,6.167314E0,4.6555605E0,2.779008E0,-5.4685764E0,-1.162541E0,-8.671673E0,-4.107243E0,-5.438734E0,-4.468456E-1,1.740486E0,-4.2631778E-1,-1.2803093E1,-9.765895E0,-1.261746E1,-1.9262833E1,-8.776706E0,-4.5548625E0,-1.0009158E1,-2.1797646E1,-5.6006703E0,-1.4884133E1,-9.20691E-1,-3.5913951E0,1.1583216E0,3.320096E0,5.5122128E0,8.332753E0,-1.500451E-1,6.829974E-2,-1.4981772E-1,1.8467772E-1,-2.4997832E-2,-3.0048898E-1,1.222369E-1,-2.4557507E-1,5.6839794E-1,3.6650136E-1,3.4777412E-1,2.2449839E-1,2.4192086E-1,8.0532566E-2,1.6911708E-1,-5.889412E-3,-7.5009756E-2,-3.4712654E-1,-1.2170475E-1,4.8088595E-2,-3.2629302E-1,-5.2964765E-1,-1.1535584E-1,-4.058197E-1,-4.1109642E-1,-2.8067473E-2,-1.19600676E-1,3.2235403E-2,5.4962333E-2,1.2947135E-1,8.191302E-3,-7.7255696E-2,-5.531913E-1,-7.253392E-1,-5.34002E-1,-3.5383365E-1,-5.6261677E-1,-1.1392629E0,-5.8948934E-1,-1.0467099E0,-5.543187E-1,-4.064792E-1,-1.7118578E-1,-3.6441424E-1,-4.560021E-1,-5.833139E-1,-7.9210323E-1,-1.3049778E0,-2.5541645E-1,-5.8382696E-1,-5.7641405E-1,-1.0123929E0,-1.5312693E-1,-1.3256199E-2,-1.6189955E-1,-3.1992984E-1,7.034944E-2,-1.03462115E-1,1.7094181E-1,-1.2943393E-1,2.9934067E-1,1.96454E-1,4.6606824E-1,3.6006957E-1],"categories":[],"categories_nodes":[],"categories_segments":[],"categories_sizes":[],"default_left":[0,0,0,0,0,0,0,0,0,0,0,0,0,0,0,0,0,0,0,0,0,0,0,0,0,0,0,0,0,0,0,0,0,0,0,0,0,0,0,0,0,0,0,0,0,0,0,0,0,0,0,0,0,0,0,0,0,0,0,0,0,0,0,0,0,0,0,0,0,0,0,0,0,0,0,0,0,0,0,0,0,0,0,0,0,0,0,0,0,0,0,0,0,0,0,0,0,0,0,0,0,0,0,0,0,0,0,0,0,0,0,0,0,0,0,0,0,0,0,0,0,0,0,0,0,0,0],"id":11,"left_children":[1,3,5,7,9,11,13,15,17,19,21,23,25,27,29,31,33,35,37,39,41,43,45,47,49,51,53,55,57,59,61,63,65,67,69,71,73,75,77,79,81,83,85,87,89,91,93,95,97,99,101,103,105,107,109,111,113,115,117,119,121,123,125,-1,-1,-1,-1,-1,-1,-1,-1,-1,-1,-1,-1,-1,-1,-1,-1,-1,-1,-1,-1,-1,-1,-1,-1,-1,-1,-1,-1,-1,-1,-1,-1,-1,-1,-1,-1,-1,-1,-1,-1,-1,-1,-1,-1,-1,-1,-1,-1,-1,-1,-1,-1,-1,-1,-1,-1,-1,-1,-1,-1,-1,-1,-1,-1],"loss_changes":[1.03863594E6,4.334402E5,3.70696E5,1.945005E5,1.12589125E5,7.7320875E4,5.9258844E4,7.379016E4,4.5628875E4,4.218958E4,1.3986783E4,1.4533625E4,5.2180125E4,1.939361E4,1.0265156E4,7.701233E4,6.9155836E4,1.9660531E4,7.3538594E3,2.9253773E4,3.0913047E4,1.1305336E4,4.9243438E3,6.4462812E3,9.836156E3,3.409347E4,1.42285E4,4.718086E3,6.956994E3,2.6385234E3,1.0550879E3,4.2350703E4,3.4389438E4,1.6081797E4,4.6510887E4,1.0675828E4,6.2761875E3,5.4419844E3,4.654615E3,1.2898805E4,1.4958766E4,9.953172E3,2.754291E4,6.904911E3,8.872501E3,2.7331787E3,8.757455E2,4.2635156E3,3.2776016E3,6.073039E3,5.473703E3,4.1695625E3,1.8016297E4,5.5542812E3,2.302289E3,3.323625E3,8.105703E2,5.5300356E3,1.2660039E3,1.2774226E3,5.211045E2,3.5140527E2,1.4538379E2,0E0,0E0,0E0,0E0,0E0,0E0,0E0,0E0,0E0,0E0,0E0,0E0,0E0,0E0,0E0,0E0,0E0,0E0,0E0,0E0,0E0,0E0,0E0,0E0,0E0,0E0,0E0,0E0,0E0,0E0,0E0,0E0,0E0,0E0,0E0,0E0,0E0,0E0,0E0,0E0,0E0,0E0,0E0,0E0,0E0,0E0,0E0,0E0,0E0,0E0,0E0,0E0,0E0,0E0,0E0,0E0,0E0,0E0,0E0,0E0,0E0,0E0,0E0,0E0],"parents":[2147483647,0,0,1,1,2,2,3,3,4,4,5,5,6,6,7,7,8,8,9,9,10,10,11,11,12,12,13,13,14,14,15,15,16,16,17,17,18,18,19,19,20,20,21,21,22,22,23,23,24,24,25,25,26,26,27,27,28,28,29,29,30,30,31,31,32,32,33,33,34,34,35,35,36,36,37,37,38,38,39,39,40,40,41,41,42,42,43,43,44,44,45,45,46,46,47,47,48,48,49,49,50,50,51,51,52,52,53,53,54,54,55,55,56,56,57,57,58,58,59,59,60,60,61,61,62,62],"right_children":[2,4,6,8,10,12,14,16,18,20,22,24,26,28,30,32,34,36,38,40,42,44,46,48,50,52,54,56,58,60,62,64,66,68,70,72,74,76,78,80,82,84,86,88,90,92,94,96,98,100,102,104,106,108,110,112,114,116,118,120,122,124,126,-1,-1,-1,-1,-1,-1,-1,-1,-1,-1,-1,-1,-1,-1,-1,-1,-1,-1,-1,-1,-1,-1,-1,-1,-1,-1,-1,-1,-1,-1,-1,-1,-1,-1,-1,-1,-1,-1,-1,-1,-1,-1,-1,-1,-1,-1,-1,-1,-1,-1,-1,-1,-1,-1,-1,-1,-1,-1,-1,-1,-1,-1,-1,-1],"split_conditions":[4.25E1,1.017E3,2.1E0,6.1E0,3.1E0,3E0,5.3E0,2.624E1,1.01E3,3.195E1,5.5E0,2.47281E1,1.1E1,5E0,7.9E0,8E0,5E0,2.8E1,5.1E1,-2.11333E1,4E0,-5.517E1,1.024E3,1E1,2.026E3,5E0,7.72E1,7.72E1,7.5E1,6.8E0,9E0,-1.17042E1,-2.59653E1,3.8E1,1.1E1,3.35E1,6.4E1,2.03E2,1.533E1,5E0,1.01E1,3.551E1,1.2E1,-2.167E-1,5E0,8E0,1.027E3,1.01E3,2.3E1,7.72E1,4.4804E1,9.25E0,1E1,2.1E1,1.2E1,1.031E3,5E1,6E0,5.989E1,7.1E1,7.72E1,4.2E1,2.5E1,-1.500451E-1,6.829974E-2,-1.4981772E-1,1.8467772E-1,-2.4997832E-2,-3.0048898E-1,1.222369E-1,-2.4557507E-1,5.6839794E-1,3.6650136E-1,3.4777412E-1,2.2449839E-1,2.4192086E-1,8.0532566E-2,1.6911708E-1,-5.889412E-3,-7.5009756E-2,-3.4712654E-1,-1.2170475E-1,4.8088595E-2,-3.2629302E-1,-5.2964765E-1,-1.1535584E-1,-4.058197E-1,-4.1109642E-1,-2.8067473E-2,-1.19600676E-1,3.2235403E-2,5.4962333E-2,1.2947135E-1,8.191302E-3,-7.7255696E-2,-5.531913E-1,-7.253392E-1,-5.34002E-1,-3.5383365E-1,-5.6261677E-1,-1.1392629E0,-5.8948934E-1,-1.0467099E0,-5.543187E-1,-4.064792E-1,-1.7118578E-1,-3.6441424E-1,-4.560021E-1,-5.833139E-1,-7.9210323E-1,-1.3049778E0,-2.5541645E-1,-5.8382696E-1,-5.7641405E-1,-1.0123929E0,-1.5312693E-1,-1.3256199E-2,-1.6189955E-1,-3.1992984E-1,7.034944E-2,-1.03462115E-1,1.7094181E-1,-1.2943393E-1,2.9934067E-1,1.96454E-1,4.6606824E-1,3.6006957E-1],"split_indices":[2,8,13,13,13,23,13,2,8,2,13,3,23,23,13,25,23,10,11,2,23,3,8,25,22,23,3,3,10,13,13,2,2,10,23,2,10,0,2,23,5,3,23,2,23,13,8,8,24,3,2,19,23,24,23,8,10,23,2,10,3,10,10,0,0,0,0,0,0,0,0,0,0,0,0,0,0,0,0,0,0,0,0,0,0,0,0,0,0,0,0,0,0,0,0,0,0,0,0,0,0,0,0,0,0,0,0,0,0,0,0,0,0,0,0,0,0,0,0,0,0,0,0,0,0,0,0],"split_type":[0,0,0,0,0,0,0,0,0,0,0,0,0,0,0,0,0,0,0,0,0,0,0,0,0,0,0,0,0,0,0,0,0,0,0,0,0,0,0,0,0,0,0,0,0,0,0,0,0,0,0,0,0,0,0,0,0,0,0,0,0,0,0,0,0,0,0,0,0,0,0,0,0,0,0,0,0,0,0,0,0,0,0,0,0,0,0,0,0,0,0,0,0,0,0,0,0,0,0,0,0,0,0,0,0,0,0,0,0,0,0,0,0,0,0,0,0,0,0,0,0,0,0,0,0,0,0],"sum_hessian":[1.22241E5,9.6273E4,2.5968E4,7.1248E4,2.5025E4,1.6396E4,9.572E3,5.1361E4,1.9887E4,1.399E4,1.1035E4,3.767E3,1.2629E4,6.421E3,3.151E3,4.2492E4,8.869E3,7.438E3,1.2449E4,7.742E3,6.248E3,4.685E3,6.35E3,2.855E3,9.12E2,8.683E3,3.946E3,1.187E3,5.234E3,2.464E3,6.87E2,1.8495E4,2.3997E4,3.024E3,5.845E3,2.668E3,4.77E3,9.787E3,2.662E3,2.206E3,5.536E3,2.43E3,3.818E3,5.08E2,4.177E3,5.025E3,1.325E3,1.492E3,1.363E3,4.55E2,4.57E2,2.849E3,5.834E3,3.841E3,1.05E2,1.13E3,5.7E1,3.938E3,1.296E3,1.587E3,8.77E2,4.98E2,1.89E2,2.58E3,1.5915E4,7.94E2,2.3203E4,6.85E2,2.339E3,4.799E3,1.046E3,1.472E3,1.196E3,3.243E3,1.527E3,9.232E3,5.55E2,2.203E3,4.59E2,5.98E2,1.608E3,3.463E3,2.073E3,1.15E3,1.28E3,2.636E3,1.182E3,3.23E2,1.85E2,1.501E3,2.676E3,2.864E3,2.161E3,8.68E2,4.57E2,7.42E2,7.5E2,1.015E3,3.48E2,4.03E2,5.2E1,8.5E1,3.72E2,6.2E2,2.229E3,4.128E3,1.706E3,2.504E3,1.337E3,4.6E1,5.9E1,1.047E3,8.3E1,3.7E1,2E1,9.22E2,3.016E3,1.153E3,1.43E2,1.474E3,1.13E2,8.63E2,1.4E1,3.81E2,1.17E2,9.7E1,9.2E1],"tree_param":{"num_deleted":"0","num_feature":"26","num_nodes":"127","size_leaf_vector":"1"}},{"base_weights":[-6.478794E-4,1.437638E0,-5.3327565E0,2.6322975E0,-1.963614E0,-8.075276E0,-6.3470674E-1,1.3395957E0,4.5420427E0,-3.753183E0,3.0530792E-1,-1.1854182E1,-6.947249E0,-2.290757E0,2.7395918E0,1.914295E0,-1.7858393E0,6.529979E0,3.588945E0,-2.2706094E0,-5.589607E0,-9.3982154E-1,1.223962E0,-1.0789944E1,-1.5170296E1,-5.6440773E0,-9.812664E0,-5.75773E0,-1.5035449E0,1.832351E0,5.9861164E0,-4.3806416E-1,2.5854626E0,-5.075529E0,3.093031E-1,8.939957E0,5.4625506E0,3.8221579E0,1.2437772E0,-5.195339E0,-1.1044275E0,-8.238441E0,-3.9020169E0,-5.1676607E0,-4.245248E-1,1.744075E0,-1.3696207E-1,-1.21637945E1,-9.278251E0,-1.1990319E1,-1.8303263E1,-8.338208E0,-4.327211E0,-9.50897E0,-2.0727547E1,-5.321378E0,-1.4167319E1,-8.7469864E-1,-3.412197E0,1.1003854E0,3.154138E0,5.237595E0,7.9204636E0,4.0208746E-2,-1.3309246E-1,-1.1486234E-1,1.4461902E-1,-5.3441394E-2,-2.979314E-1,9.717297E-2,-2.3917882E-1,5.303814E-1,3.416579E-1,3.152639E-1,1.9052325E-1,1.6196322E-1,2.3631786E-1,9.098249E-2,-2.6653695E-1,-7.12655E-2,-3.2978103E-1,-1.0802408E-1,6.035625E-2,-3.0999252E-1,-5.031859E-1,-1.09590195E-1,-3.8554588E-1,-3.9060503E-1,-2.6671687E-2,-1.1362465E-1,3.06242E-2,9.83562E-2,-2.8732542E-2,1.6604392E-2,-7.340137E-2,-5.0956756E-1,-6.7631E-1,-5.073282E-1,-3.3619267E-1,-5.3455555E-1,-1.0833745E0,-5.6035763E-1,-9.9451464E-1,-5.2664745E-1,-3.861644E-1,-1.6262852E-1,-3.4620422E-1,-4.332111E-1,-5.5417E-1,-7.533408E-1,-1.2408164E0,-2.4265778E-1,-5.5498314E-1,-5.483518E-1,-9.6418375E-1,-1.4547883E-1,-1.2593614E-2,-1.5381159E-1,-3.0404446E-1,6.683438E-2,-9.833439E-2,1.624046E-1,-1.2339365E-1,2.844128E-1,1.8671459E-1,4.430026E-1,3.422597E-1],"categories":[],"categories_nodes":[],"categories_segments":[],"categories_sizes":[],"default_left":[0,0,0,0,0,0,0,0,0,0,0,0,0,0,0,0,0,0,0,0,0,0,0,0,0,0,0,0,0,0,0,0,0,0,0,0,0,0,0,0,0,0,0,0,0,0,0,0,0,0,0,0,0,0,0,0,0,0,0,0,0,0,0,0,0,0,0,0,0,0,0,0,0,0,0,0,0,0,0,0,0,0,0,0,0,0,0,0,0,0,0,0,0,0,0,0,0,0,0,0,0,0,0,0,0,0,0,0,0,0,0,0,0,0,0,0,0,0,0,0,0,0,0,0,0,0,0],"id":12,"left_children":[1,3,5,7,9,11,13,15,17,19,21,23,25,27,29,31,33,35,37,39,41,43,45,47,49,51,53,55,57,59,61,63,65,67,69,71,73,75,77,79,81,83,85,87,89,91,93,95,97,99,101,103,105,107,109,111,113,115,117,119,121,123,125,-1,-1,-1,-1,-1,-1,-1,-1,-1,-1,-1,-1,-1,-1,-1,-1,-1,-1,-1,-1,-1,-1,-1,-1,-1,-1,-1,-1,-1,-1,-1,-1,-1,-1,-1,-1,-1,-1,-1,-1,-1,-1,-1,-1,-1,-1,-1,-1,-1,-1,-1,-1,-1,-1,-1,-1,-1,-1,-1,-1,-1,-1,-1,-1],"loss_changes":[9.374934E5,3.91199E5,3.3459244E5,1.758885E5,1.0161652E5,6.981325E4,5.3500273E4,7.632331E4,5.4468062E4,3.807967E4,1.26246045E4,1.3134125E4,4.7106688E4,1.7518543E4,9.272867E3,5.6666812E4,4.5491203E4,2.3924125E4,1.0628547E4,2.6403828E4,2.7901797E4,1.02066875E4,4.4956953E3,5.8185938E3,8.876547E3,3.0773125E4,1.28863125E4,4.2840234E3,6.2803184E3,2.3814229E3,9.546699E2,2.2013521E4,4.1853297E4,9.080016E3,3.3574184E4,9.972453E3,8.971328E3,9.304531E3,6.673207E3,1.1641574E4,1.3519115E4,8.983344E3,2.4860184E4,6.233593E3,8.0079395E3,2.3776152E3,1.097446E3,3.8742344E3,2.9571562E3,5.5014844E3,4.934953E3,3.7649844E3,1.6261242E4,5.0138438E3,2.0795156E3,3.0060762E3,7.3819434E2,4.99146E3,1.144168E3,1.153542E3,4.717832E2,3.168203E2,1.3130957E2,0E0,0E0,0E0,0E0,0E0,0E0,0E0,0E0,0E0,0E0,0E0,0E0,0E0,0E0,0E0,0E0,0E0,0E0,0E0,0E0,0E0,0E0,0E0,0E0,0E0,0E0,0E0,0E0,0E0,0E0,0E0,0E0,0E0,0E0,0E0,0E0,0E0,0E0,0E0,0E0,0E0,0E0,0E0,0E0,0E0,0E0,0E0,0E0,0E0,0E0,0E0,0E0,0E0,0E0,0E0,0E0,0E0,0E0,0E0,0E0,0E0,0E0,0E0,0E0],"parents":[2147483647,0,0,1,1,2,2,3,3,4,4,5,5,6,6,7,7,8,8,9,9,10,10,11,11,12,12,13,13,14,14,15,15,16,16,17,17,18,18,19,19,20,20,21,21,22,22,23,23,24,24,25,25,26,26,27,27,28,28,29,29,30,30,31,31,32,32,33,33,34,34,35,35,36,36,37,37,38,38,39,39,40,40,41,41,42,42,43,43,44,44,45,45,46,46,47,47,48,48,49,49,50,50,51,51,52,52,53,53,54,54,55,55,56,56,57,57,58,58,59,59,60,60,61,61,62,62],"right_children":[2,4,6,8,10,12,14,16,18,20,22,24,26,28,30,32,34,36,38,40,42,44,46,48,50,52,54,56,58,60,62,64,66,68,70,72,74,76,78,80,82,84,86,88,90,92,94,96,98,100,102,104,106,108,110,112,114,116,118,120,122,124,126,-1,-1,-1,-1,-1,-1,-1,-1,-1,-1,-1,-1,-1,-1,-1,-1,-1,-1,-1,-1,-1,-1,-1,-1,-1,-1,-1,-1,-1,-1,-1,-1,-1,-1,-1,-1,-1,-1,-1,-1,-1,-1,-1,-1,-1,-1,-1,-1,-1,-1,-1,-1,-1,-1,-1,-1,-1,-1,-1,-1,-1,-1,-1,-1],"split_conditions":[4.25E1,1.017E3,2.1E0,4.1E0,3.1E0,3E0,5.3E0,2.624E1,1.01E3,3.195E1,5.5E0,2.47281E1,1.1E1,5E0,7.9E0,-6.272E1,5E0,2.8E1,7.6E1,-2.11333E1,4E0,-5.517E1,1.023E3,1E1,2.026E3,5E0,7.72E1,7.72E1,7.5E1,6.8E0,9E0,1.95E2,-2.25717E1,3.8E1,1.1E1,3.35E1,5.1E1,7.9E0,2.624E1,5E0,1.22E1,3.551E1,1.2E1,-2.167E-1,5E0,2.01E2,1.027E3,1.007E3,2.3E1,7.72E1,4.4804E1,9.25E0,1E1,2.1E1,1.2E1,1.031E3,5E1,6E0,5.989E1,7.1E1,7.72E1,4.2E1,2.5E1,4.0208746E-2,-1.3309246E-1,-1.1486234E-1,1.4461902E-1,-5.3441394E-2,-2.979314E-1,9.717297E-2,-2.3917882E-1,5.303814E-1,3.416579E-1,3.152639E-1,1.9052325E-1,1.6196322E-1,2.3631786E-1,9.098249E-2,-2.6653695E-1,-7.12655E-2,-3.2978103E-1,-1.0802408E-1,6.035625E-2,-3.0999252E-1,-5.031859E-1,-1.09590195E-1,-3.8554588E-1,-3.9060503E-1,-2.6671687E-2,-1.1362465E-1,3.06242E-2,9.83562E-2,-2.8732542E-2,1.6604392E-2,-7.340137E-2,-5.0956756E-1,-6.7631E-1,-5.073282E-1,-3.3619267E-1,-5.3455555E-1,-1.0833745E0,-5.6035763E-1,-9.9451464E-1,-5.2664745E-1,-3.861644E-1,-1.6262852E-1,-3.4620422E-1,-4.332111E-1,-5.5417E-1,-7.533408E-1,-1.2408164E0,-2.4265778E-1,-5.5498314E-1,-5.483518E-1,-9.6418375E-1,-1.4547883E-1,-1.2593614E-2,-1.5381159E-1,-3.0404446E-1,6.683438E-2,-9.833439E-2,1.624046E-1,-1.2339365E-1,2.844128E-1,1.8671459E-1,4.430026E-1,3.422597E-1],"split_indices":[2,8,13,13,13,23,13,2,8,2,13,3,23,23,13,3,23,10,11,2,23,3,8,25,22,23,3,3,10,13,13,1,2,10,23,2,11,13,2,23,5,3,23,2,23,0,8,8,24,3,2,19,23,24,23,8,10,23,2,10,3,10,10,0,0,0,0,0,0,0,0,0,0,0,0,0,0,0,0,0,0,0,0,0,0,0,0,0,0,0,0,0,0,0,0,0,0,0,0,0,0,0,0,0,0,0,0,0,0,0,0,0,0,0,0,0,0,0,0,0,0,0,0,0,0,0,0],"split_type":[0,0,0,0,0,0,0,0,0,0,0,0,0,0,0,0,0,0,0,0,0,0,0,0,0,0,0,0,0,0,0,0,0,0,0,0,0,0,0,0,0,0,0,0,0,0,0,0,0,0,0,0,0,0,0,0,0,0,0,0,0,0,0,0,0,0,0,0,0,0,0,0,0,0,0,0,0,0,0,0,0,0,0,0,0,0,0,0,0,0,0,0,0,0,0,0,0,0,0,0,0,0,0,0,0,0,0,0,0,0,0,0,0,0,0,0,0,0,0,0,0,0,0,0,0,0,0],"sum_hessian":[1.22241E5,9.6273E4,2.5968E4,7.1248E4,2.5025E4,1.6396E4,9.572E3,4.2489E4,2.8759E4,1.399E4,1.1035E4,3.767E3,1.2629E4,6.421E3,3.151E3,3.589E4,6.599E3,9.318E3,1.9441E4,7.742E3,6.248E3,4.685E3,6.35E3,2.855E3,9.12E2,8.683E3,3.946E3,1.187E3,5.234E3,2.464E3,6.87E2,7.967E3,2.7923E4,2.567E3,4.032E3,2.858E3,6.46E3,1.7682E4,1.759E3,2.206E3,5.536E3,2.43E3,3.818E3,5.08E2,4.177E3,4.594E3,1.756E3,1.492E3,1.363E3,4.55E2,4.57E2,2.849E3,5.834E3,3.841E3,1.05E2,1.13E3,5.7E1,3.938E3,1.296E3,1.587E3,8.77E2,4.98E2,1.89E2,5.112E3,2.855E3,1.651E3,2.6272E4,4.64E2,2.103E3,3.053E3,9.79E2,1.593E3,1.265E3,4.276E3,2.184E3,1.0754E4,6.928E3,1.618E3,1.41E2,5.98E2,1.608E3,3.8E3,1.736E3,1.15E3,1.28E3,2.636E3,1.182E3,3.23E2,1.85E2,1.501E3,2.676E3,4.191E3,4.03E2,1.299E3,4.57E2,6.13E2,8.79E2,1.015E3,3.48E2,4.03E2,5.2E1,8.5E1,3.72E2,6.2E2,2.229E3,4.128E3,1.706E3,2.504E3,1.337E3,4.6E1,5.9E1,1.047E3,8.3E1,3.7E1,2E1,9.22E2,3.016E3,1.153E3,1.43E2,1.474E3,1.13E2,8.63E2,1.4E1,3.81E2,1.17E2,9.7E1,9.2E1],"tree_param":{"num_deleted":"0","num_feature":"26","num_nodes":"127","size_leaf_vector":"1"}},{"base_weights":[-7.173926E-4,1.3657438E0,-5.0665526E0,2.5006974E0,-1.8655229E0,-8.1496525E0,-1.2799575E0,1.5697907E0,4.904696E0,-3.565649E0,2.8999838E-1,-1.1373656E1,-7.118123E0,-3.357855E0,1.4521788E0,2.3681698E0,1.9446464E-2,8.10426E0,4.302071E0,-2.3062463E0,-5.5383134E0,-5.1320106E-1,1.5874203E0,-1.0043432E1,-1.4008266E1,-5.8505235E0,-9.411094E0,-6.5558004E0,-2.1634007E0,2.2133796E-1,4.181909E0,2.9871936E0,1.05964825E-1,5.264993E-1,-5.055889E0,6.2394166E0,9.4435005E0,5.2343717E0,3.4293208E0,-5.766746E0,-1.6007518E0,-2.767222E0,-7.318896E0,-6.619702E0,-3.08555E-1,2.025969E0,2.737009E-2,-9.842925E0,-1.9689198E1,-1.1046486E1,-1.6637972E1,-8.249064E0,-4.582853E0,-8.850902E0,-1.5003728E1,-5.7984014E0,-1.2025558E1,-8.124825E-1,-3.338002E0,8.594046E-1,-9.8899144E-1,2.9964752E0,5.6886373E0,-3.8955238E-2,1.7497416E-1,-1.7566912E-1,9.107636E-2,-2.3188248E-1,3.6799114E-2,-3.4567708E-1,-1.5588596E-1,2.6379094E-1,3.808587E-1,5.149003E-1,3.2273552E-1,3.2870388E-1,2.1883622E-1,2.2312108E-1,1.4177126E-1,-9.284184E-2,-3.495118E-1,-1.2377713E-1,2.2546886E-2,-3.1547508E-1,-6.968125E-2,-5.0242084E-1,-2.9389736E-1,-4.123521E-1,-2.1021521E-1,-9.6911244E-2,1.9085199E-2,1.4170536E-1,7.2272286E-2,9.667064E-2,-2.8070897E-2,-4.2287546E-1,-5.4685396E-1,-7.2712386E-1,-1.1239215E0,-5.0024945E-1,-1.0302279E0,-9.4590455E-1,-6.1949176E-1,-5.0616753E-1,-3.8557944E-1,-1.7437576E-1,-3.4272102E-1,-3.9687392E-1,-5.1535887E-1,-6.456515E-1,-9.879522E-1,-4.647629E-1,-2.485063E-1,-5.1465535E-1,-1.0394856E0,-2.8414714E-1,-1.8347533E-2,-1.5653235E-1,-4.250364E-1,-4.78633E-2,7.101087E-2,-8.778019E-2,2.2378162E-2,1.5429375E-1,-1.17635265E-1,2.4883302E-1,3.7642866E-1],"categories":[],"categories_nodes":[],"categories_segments":[],"categories_sizes":[],"default_left":[0,0,0,0,0,0,0,0,0,0,0,0,0,0,0,0,0,0,0,0,0,0,0,0,0,0,0,0,0,0,0,0,0,0,0,0,0,0,0,0,0,0,0,0,0,0,0,0,0,0,0,0,0,0,0,0,0,0,0,0,0,0,0,0,0,0,0,0,0,0,0,0,0,0,0,0,0,0,0,0,0,0,0,0,0,0,0,0,0,0,0,0,0,0,0,0,0,0,0,0,0,0,0,0,0,0,0,0,0,0,0,0,0,0,0,0,0,0,0,0,0,0,0,0,0,0,0],"id":13,"left_children":[1,3,5,7,9,11,13,15,17,19,21,23,25,27,29,31,33,35,37,39,41,43,45,47,49,51,53,55,57,59,61,63,65,67,69,71,73,75,77,79,81,83,85,87,89,91,93,95,97,99,101,103,105,107,109,111,113,115,117,119,121,123,125,-1,-1,-1,-1,-1,-1,-1,-1,-1,-1,-1,-1,-1,-1,-1,-1,-1,-1,-1,-1,-1,-1,-1,-1,-1,-1,-1,-1,-1,-1,-1,-1,-1,-1,-1,-1,-1,-1,-1,-1,-1,-1,-1,-1,-1,-1,-1,-1,-1,-1,-1,-1,-1,-1,-1,-1,-1,-1,-1,-1,-1,-1,-1,-1],"loss_changes":[8.461987E5,3.530739E5,3.0316338E5,1.5944028E5,9.171279E4,4.7522375E4,6.617716E4,6.3573906E4,3.831197E4,3.4746156E4,1.1501304E4,1.20133125E4,3.14725E4,2.527671E4,1.691935E4,4.7476047E4,4.493533E4,7.8105938E3,1.3601156E4,2.0842457E4,2.6875844E4,8.516966E3,2.8870908E3,4.27E3,8.858781E3,2.120961E4,1.1960375E4,7.387289E3,7.648793E3,2.6821746E3,2.7782422E3,5.1362344E4,4.5240535E4,1.7177008E4,5.688754E3,1.71225E3,4.6123594E3,9.26775E3,5.2933594E3,6.904297E3,1.273701E4,1.0374532E4,1.2990953E4,8.3400586E2,7.421667E3,1.5412607E3,1.041416E3,3.337875E3,3.3345703E2,5.2589844E3,5.7032812E3,2.3547656E3,1.13568125E4,4.5885312E3,3.2245156E3,4.5387383E3,3.096004E3,4.867272E3,2.73425E3,2.3181382E3,1.321221E3,4.2713184E2,8.6380664E2,0E0,0E0,0E0,0E0,0E0,0E0,0E0,0E0,0E0,0E0,0E0,0E0,0E0,0E0,0E0,0E0,0E0,0E0,0E0,0E0,0E0,0E0,0E0,0E0,0E0,0E0,0E0,0E0,0E0,0E0,0E0,0E0,0E0,0E0,0E0,0E0,0E0,0E0,0E0,0E0,0E0,0E0,0E0,0E0,0E0,0E0,0E0,0E0,0E0,0E0,0E0,0E0,0E0,0E0,0E0,0E0,0E0,0E0,0E0,0E0,0E0,0E0,0E0,0E0],"parents":[2147483647,0,0,1,1,2,2,3,3,4,4,5,5,6,6,7,7,8,8,9,9,10,10,11,11,12,12,13,13,14,14,15,15,16,16,17,17,18,18,19,19,20,20,21,21,22,22,23,23,24,24,25,25,26,26,27,27,28,28,29,29,30,30,31,31,32,32,33,33,34,34,35,35,36,36,37,37,38,38,39,39,40,40,41,41,42,42,43,43,44,44,45,45,46,46,47,47,48,48,49,49,50,50,51,51,52,52,53,53,54,54,55,55,56,56,57,57,58,58,59,59,60,60,61,61,62,62],"right_children":[2,4,6,8,10,12,14,16,18,20,22,24,26,28,30,32,34,36,38,40,42,44,46,48,50,52,54,56,58,60,62,64,66,68,70,72,74,76,78,80,82,84,86,88,90,92,94,96,98,100,102,104,106,108,110,112,114,116,118,120,122,124,126,-1,-1,-1,-1,-1,-1,-1,-1,-1,-1,-1,-1,-1,-1,-1,-1,-1,-1,-1,-1,-1,-1,-1,-1,-1,-1,-1,-1,-1,-1,-1,-1,-1,-1,-1,-1,-1,-1,-1,-1,-1,-1,-1,-1,-1,-1,-1,-1,-1,-1,-1,-1,-1,-1,-1,-1,-1,-1,-1,-1,-1,-1,-1,-1],"split_conditions":[4.25E1,1.017E3,1.4E0,6.1E0,3.1E0,3E0,4.2E0,8.5E1,1.006E3,3.403E1,7E0,2.047E1,